{"learner":{"attributes":{"scikit_learn":"{\"_estimator_type\": \"regressor\"}"},"feature_names":[],"feature_types":[],"gradient_booster":{"model":{"cats":{"enc":[],"feature_segments":[],"sorted_idx":[]},"gbtree_model_param":{"num_parallel_tree":"1","num_trees":"534"},"iteration_indptr":[0,1,2,3,4,5,6,7,8,9,10,11,12,13,14,15,16,17,18,19,20,21,22,23,24,25,26,27,28,29,30,31,32,33,34,35,36,37,38,39,40,41,42,43,44,45,46,47,48,49,50,51,52,53,54,55,56,57,58,59,60,61,62,63,64,65,66,67,68,69,70,71,72,73,74,75,76,77,78,79,80,81,82,83,84,85,86,87,88,89,90,91,92,93,94,95,96,97,98,99,100,101,102,103,104,105,106,107,108,109,110,111,112,113,114,115,116,117,118,119,120,121,122,123,124,125,126,127,128,129,130,131,132,133,134,135,136,137,138,139,140,141,142,143,144,145,146,147,148,149,150,151,152,153,154,155,156,157,158,159,160,161,162,163,164,165,166,167,168,169,170,171,172,173,174,175,176,177,178,179,180,181,182,183,184,185,186,187,188,189,190,191,192,193,194,195,196,197,198,199,200,201,202,203,204,205,206,207,208,209,210,211,212,213,214,215,216,217,218,219,220,221,222,223,224,225,226,227,228,229,230,231,232,233,234,235,236,237,238,239,240,241,242,243,244,245,246,247,248,249,250,251,252,253,254,255,256,257,258,259,260,261,262,263,264,265,266,267,268,269,270,271,272,273,274,275,276,277,278,279,280,281,282,283,284,285,286,287,288,289,290,291,292,293,294,295,296,297,298,299,300,301,302,303,304,305,306,307,308,309,310,311,312,313,314,315,316,317,318,319,320,321,322,323,324,325,326,327,328,329,330,331,332,333,334,335,336,337,338,339,340,341,342,343,344,345,346,347,348,349,350,351,352,353,354,355,356,357,358,359,360,361,362,363,364,365,366,367,368,369,370,371,372,373,374,375,376,377,378,379,380,381,382,383,384,385,386,387,388,389,390,391,392,393,394,395,396,397,398,399,400,401,402,403,404,405,406,407,408,409,410,411,412,413,414,415,416,417,418,419,420,421,422,423,424,425,426,427,428,429,430,431,432,433,434,435,436,437,438,439,440,441,442,443,444,445,446,447,448,449,450,451,452,453,454,455,456,457,458,459,460,461,462,463,464,465,466,467,468,469,470,471,472,473,474,475,476,477,478,479,480,481,482,483,484,485,486,487,488,489,490,491,492,493,494,495,496,497,498,499,500,501,502,503,504,505,506,507,508,509,510,511,512,513,514,515,516,517,518,519,520,521,522,523,524,525,526,527,528,529,530,531,532,533,534],"tree_info":[0,0,0,0,0,0,0,0,0,0,0,0,0,0,0,0,0,0,0,0,0,0,0,0,0,0,0,0,0,0,0,0,0,0,0,0,0,0,0,0,0,0,0,0,0,0,0,0,0,0,0,0,0,0,0,0,0,0,0,0,0,0,0,0,0,0,0,0,0,0,0,0,0,0,0,0,0,0,0,0,0,0,0,0,0,0,0,0,0,0,0,0,0,0,0,0,0,0,0,0,0,0,0,0,0,0,0,0,0,0,0,0,0,0,0,0,0,0,0,0,0,0,0,0,0,0,0,0,0,0,0,0,0,0,0,0,0,0,0,0,0,0,0,0,0,0,0,0,0,0,0,0,0,0,0,0,0,0,0,0,0,0,0,0,0,0,0,0,0,0,0,0,0,0,0,0,0,0,0,0,0,0,0,0,0,0,0,0,0,0,0,0,0,0,0,0,0,0,0,0,0,0,0,0,0,0,0,0,0,0,0,0,0,0,0,0,0,0,0,0,0,0,0,0,0,0,0,0,0,0,0,0,0,0,0,0,0,0,0,0,0,0,0,0,0,0,0,0,0,0,0,0,0,0,0,0,0,0,0,0,0,0,0,0,0,0,0,0,0,0,0,0,0,0,0,0,0,0,0,0,0,0,0,0,0,0,0,0,0,0,0,0,0,0,0,0,0,0,0,0,0,0,0,0,0,0,0,0,0,0,0,0,0,0,0,0,0,0,0,0,0,0,0,0,0,0,0,0,0,0,0,0,0,0,0,0,0,0,0,0,0,0,0,0,0,0,0,0,0,0,0,0,0,0,0,0,0,0,0,0,0,0,0,0,0,0,0,0,0,0,0,0,0,0,0,0,0,0,0,0,0,0,0,0,0,0,0,0,0,0,0,0,0,0,0,0,0,0,0,0,0,0,0,0,0,0,0,0,0,0,0,0,0,0,0,0,0,0,0,0,0,0,0,0,0,0,0,0,0,0,0,0,0,0,0,0,0,0,0,0,0,0,0,0,0,0,0,0,0,0,0,0,0,0,0,0,0,0,0,0,0,0,0,0,0,0,0,0,0,0,0,0,0,0,0,0,0,0,0,0,0,0,0,0,0,0,0,0,0,0,0,0,0,0,0,0,0,0,0,0,0,0,0,0,0,0,0,0,0,0,0,0,0,0,0,0,0,0,0,0,0,0,0,0,0,0,0,0,0,0,0,0,0,0],"trees":[{"base_weights":[-1.0335518E-3,-1.5498705E-1,3.24649E0,-1.6622931E-1,4.098914E0,3.6793337E0,2.0441263E0,-1.9803143E-1,6.5206444E-1,4.88016E0,4.4347882E-1,3.9990091E0,3.2693326E0,2.250428E0,3.259229E-1,-2.0009941E-1,5.809327E-1,3.2769582E0,4.8608932E-1,4.4748397E0,7.127603E-1,7.407134E-2,6.5319235E-3,3.887761E0,4.2352635E-1,3.2014353E0,3.915197E-1,2.1690009E0,3.9733748E0,1.8152444E-1,8.412781E-2,1.7246197E-1,-2.0049497E-1,1.9426951E0,8.484512E-3,3.396839E-1,2.7252352E-1,1.2261759E0,4.5778912E-1,3.9837235E-1,3.4338257E-1,3.343936E-1,3.098125E-1,3.3324015E0,2.9324436E0,2.383218E0,1.5879986E0,3.9903924E-1,2.734269E-1,3.5018268E-1,3.4697194E-2,-2.0097232E-1,9.9886574E-2,2.3130965E-1,1.2287992E-1,4.0880874E-2,-6.5430425E-2,1.320847E0,5.4086454E-2,3.7729442E-1,6.608008E-1,2.4754414E-1,2.8612733E-1,1.8084227E-1,2.9652848E0,2.190957E0,2.726281E0,1.8394004E0,1.2683655E0,3.2702122E-2,2.0415738E-2,-2.0498743E-3,1.1521777E-2,-2.0128582E-1,4.3449375E-1,1.4565957E-2,1.2678871E-2,-3.3738427E-2,-1.2158608E-2,1.2085048E-1,9.4294146E-2,3.9293402E-1,-2.3873938E-2,6.7481035E-1,1.20920455E-2,2.4181265E-1,2.6418093E-1,2.355538E0,1.6149913E-1,2.4258648E-1,2.5173378E0,1.4767002E-1,1.9129798E-1,1.0707135E0,1.5512322E-1,2.3781708E-3,-2.334101E-3,-2.0322013E-1,-1.5287322E-1,7.2784826E-2,2.3627193E-1,6.751981E-2,-2.453681E-2,-0E0,-4.1739447E-3,4.3192884E-1,3.522484E-1,2.5460655E-2,-1.2354686E-1,6.1599847E-2,6.2557346E-1,1.3500535E-1,2.0345223E-1,2.4116364E-1,1.930885E-1,1.1446755E0,6.511983E-2,-2.0331216E-1,1.6170764E-2,-4.0732425E-2,-1.6624568E-1,1.3417305E-2,2.5499696E-2,3.398904E-3,8.3390605E-3,-4.4872813E-2,6.6882087E-4,3.9820082E-2,3.6084175E-2,3.4749177E-1,4.962993E-2,-7.6108864E-3,5.6518535E-3,-1.3346107E-2,-7.1752467E-3,3.8862996E-2,6.392643E-1,1.02172896E-1,7.622819E-2,-1.357448E-3,-1.7341953E-2,9.821242E-3,-4.999659E-3,-1.216119E-2,-1.4956314E-2,-4.6946807E-3,-1.6911012E-3,2.8921094E-2,3.3123802E-2,-0E0,-1.5637102E-3,6.040567E-2,5.310972E-2],"categories":[],"categories_nodes":[],"categories_segments":[],"categories_sizes":[],"default_left":[0,0,0,0,0,0,0,0,0,0,0,0,0,0,0,0,0,0,0,0,0,0,0,0,0,0,0,0,0,0,0,0,0,0,0,0,0,0,0,0,0,0,0,0,0,0,0,0,0,0,0,0,0,0,0,0,0,0,0,0,0,0,0,0,0,0,0,0,0,0,0,0,0,0,0,0,0,0,0,0,0,0,0,0,0,0,0,0,0,0,0,0,0,0,0,0,0,0,0,0,0,0,0,0,0,0,0,0,0,0,0,0,0,0,0,0,0,0,0,0,0,0,0,0,0,0,0,0,0,0,0,0,0,0,0,0,0,0,0,0,0,0,0,0,0,0,0,0,0,0,0,0,0],"id":0,"left_children":[1,3,5,7,9,11,13,15,17,19,21,23,25,27,29,31,33,35,37,39,-1,-1,-1,41,-1,43,-1,45,47,49,-1,-1,51,53,55,-1,-1,57,59,-1,-1,-1,-1,61,63,65,67,-1,-1,69,71,73,-1,-1,-1,75,77,79,-1,81,83,-1,-1,-1,85,87,89,91,93,-1,-1,95,-1,97,99,101,-1,103,-1,-1,-1,105,107,109,-1,-1,-1,111,-1,-1,113,-1,-1,115,-1,-1,-1,117,119,-1,121,123,125,-1,-1,127,129,131,133,-1,135,-1,-1,-1,-1,137,-1,139,-1,141,143,-1,-1,-1,-1,145,-1,-1,-1,147,-1,149,-1,-1,-1,-1,151,-1,-1,-1,-1,-1,-1,-1,-1,-1,-1,-1,-1,-1,-1,-1,-1],"loss_changes":[2.2516264E4,2.0563618E3,1.0580605E3,1.1160259E3,3.2273547E2,1.9168164E2,1.9118579E2,6.652283E1,6.982744E2,1.1848096E2,3.114585E0,8.365039E1,5.3845703E1,6.4516846E1,5.4611406E0,3.6267822E1,8.515355E1,8.5058594E-1,3.1358154E1,7.4975586E-1,0E0,0E0,0E0,1.4511719E0,0E0,1.8552734E1,0E0,5.5985596E1,6.176941E0,1.1782318E0,0E0,0E0,2.7002686E1,1.1008888E1,1.851615E-1,0E0,0E0,2.7421799E0,2.3641815E1,0E0,0E0,0E0,0E0,6.8310547E-1,3.2282715E0,1.9974121E1,9.1631775E0,0E0,0E0,2.7659655E-2,1.0238367E-1,8.21875E0,0E0,0E0,0E0,1.4721319E-1,4.871963E-2,3.5525513E-1,0E0,6.557022E0,2.9344025E0,0E0,0E0,0E0,2.2717285E-1,8.9436035E0,3.3538818E-1,1.5441589E0,5.365822E0,0E0,0E0,1.4903554E-2,0E0,3.8275146E0,1.5800002E0,9.401116E-2,0E0,7.437123E-3,0E0,0E0,0E0,1.5103607E0,1.9825E-1,7.374573E-1,0E0,0E0,0E0,1.8448486E0,0E0,0E0,1.2802734E0,0E0,0E0,5.9233856E-1,0E0,0E0,0E0,1.4432373E0,2.3626785E0,0E0,3.7695825E-2,9.621553E-3,1.8218283E-2,0E0,0E0,5.519104E-2,4.3537903E-1,3.797397E-2,3.6822557E-3,0E0,3.2518005E-1,0E0,0E0,0E0,0E0,5.794525E-3,0E0,6.14624E-1,0E0,4.7292182E-1,2.854271E-1,0E0,0E0,0E0,0E0,9.393655E-4,0E0,0E0,0E0,9.220505E-2,0E0,1.6378267E-3,0E0,0E0,0E0,0E0,8.514404E-3,0E0,0E0,0E0,0E0,0E0,0E0,0E0,0E0,0E0,0E0,0E0,0E0,0E0,0E0,0E0,0E0],"parents":[2147483647,0,0,1,1,2,2,3,3,4,4,5,5,6,6,7,7,8,8,9,9,10,10,11,11,12,12,13,13,14,14,15,15,16,16,17,17,18,18,19,19,23,23,25,25,27,27,28,28,29,29,32,32,33,33,34,34,37,37,38,38,43,43,44,44,45,45,46,46,49,49,50,50,51,51,55,55,56,56,57,57,59,59,60,60,64,64,65,65,66,66,67,67,68,68,71,71,73,73,74,74,75,75,77,77,81,81,82,82,83,83,87,87,90,90,93,93,97,97,98,98,100,100,101,101,102,102,105,105,106,106,107,107,108,108,110,110,115,115,117,117,119,119,120,120,125,125,129,129,131,131,136,136],"right_children":[2,4,6,8,10,12,14,16,18,20,22,24,26,28,30,32,34,36,38,40,-1,-1,-1,42,-1,44,-1,46,48,50,-1,-1,52,54,56,-1,-1,58,60,-1,-1,-1,-1,62,64,66,68,-1,-1,70,72,74,-1,-1,-1,76,78,80,-1,82,84,-1,-1,-1,86,88,90,92,94,-1,-1,96,-1,98,100,102,-1,104,-1,-1,-1,106,108,110,-1,-1,-1,112,-1,-1,114,-1,-1,116,-1,-1,-1,118,120,-1,122,124,126,-1,-1,128,130,132,134,-1,136,-1,-1,-1,-1,138,-1,140,-1,142,144,-1,-1,-1,-1,146,-1,-1,-1,148,-1,150,-1,-1,-1,-1,152,-1,-1,-1,-1,-1,-1,-1,-1,-1,-1,-1,-1,-1,-1,-1,-1],"split_conditions":[1.7036976E0,1.6E1,-4.7065407E-1,1.8754585E0,-4.7065315E-1,-4.7065482E-1,-4.706329E-1,6.931472E-1,-4.7065315E-1,3.349904E0,-4.7058985E-1,1.3E1,1.9E1,5.5E1,2.8552666E0,-1.22529104E-1,-4.706517E-1,-4.7065488E-1,-4.706425E-1,-4.706548E-1,7.127603E-1,7.407134E-2,6.5319235E-3,-4.7065488E-1,4.2352635E-1,-4.706546E-1,3.915197E-1,-4.706517E-1,-4.706517E-1,-4.7058263E-1,8.412781E-2,1.7246197E-1,3E8,-4.706544E-1,-4.7058985E-1,3.396839E-1,2.7252352E-1,9.800142E-1,7.2E2,3.9837235E-1,3.4338257E-1,3.343936E-1,3.098125E-1,8.8E1,6E0,1.2E1,-4.70649E-1,3.9903924E-1,2.734269E-1,-4.706089E-1,2.9744E2,3.3921694E5,9.9886574E-2,2.3130965E-1,1.2287992E-1,7E0,-4.7052515E-1,-4.70649E-1,5.4086454E-2,-4.7061718E-1,-4.7062534E-1,2.4754414E-1,2.8612733E-1,1.8084227E-1,2.6910608E0,-4.7065315E-1,-4.7065315E-1,1.9E1,2.2E1,3.2702122E-2,2.0415738E-2,-4.7052515E-1,1.1521777E-2,2.0141602E3,-1.3E1,3.922E2,1.2678871E-2,1.4461377E1,-1.2158608E-2,1.2085048E-1,9.4294146E-2,-4.7063828E-1,-4.7051716E-1,-4.7063652E-1,1.20920455E-2,2.4181265E-1,2.6418093E-1,1.8608161E0,1.6149913E-1,2.4258648E-1,-9.423077E-1,1.4767002E-1,1.9129798E-1,-4.706425E-1,1.5512322E-1,2.3781708E-3,-2.334101E-3,9.4E1,-4.7061718E-1,7.2784826E-2,4.063727E-1,4.1971165E-1,3E0,-0E0,-4.1739447E-3,-4.706407E-1,1.1E1,2.0794415E0,1.1E1,6.1599847E-2,2.1972246E0,1.3500535E-1,2.0345223E-1,2.4116364E-1,1.930885E-1,5.6028366E1,6.511983E-2,0E0,1.6170764E-2,-4.706407E-1,-4.705745E-1,1.3417305E-2,2.5499696E-2,3.398904E-3,8.3390605E-3,4.3153763E1,6.6882087E-4,3.9820082E-2,3.6084175E-2,2.44E2,4.962993E-2,2.643506E-1,5.6518535E-3,-1.3346107E-2,-7.1752467E-3,3.8862996E-2,1.357E3,1.02172896E-1,7.622819E-2,-1.357448E-3,-1.7341953E-2,9.821242E-3,-4.999659E-3,-1.216119E-2,-1.4956314E-2,-4.6946807E-3,-1.6911012E-3,2.8921094E-2,3.3123802E-2,-0E0,-1.5637102E-3,6.040567E-2,5.310972E-2],"split_indices":[43,4,7,53,7,7,7,50,7,50,7,4,4,4,43,41,7,7,7,7,0,0,0,7,0,7,0,7,7,7,0,0,45,7,7,0,0,32,24,0,0,0,0,1,4,4,7,0,0,7,31,37,0,0,0,4,7,7,0,7,7,0,0,0,43,7,7,4,4,0,0,7,0,37,31,31,0,32,0,0,0,7,7,7,0,0,0,43,0,0,45,0,0,7,0,0,0,24,7,0,0,0,4,0,0,7,4,51,4,0,51,0,0,0,0,37,0,2,0,7,7,0,0,0,0,37,0,0,0,9,0,0,0,0,0,0,28,0,0,0,0,0,0,0,0,0,0,0,0,0,0,0,0],"split_type":[0,0,0,0,0,0,0,0,0,0,0,0,0,0,0,0,0,0,0,0,0,0,0,0,0,0,0,0,0,0,0,0,0,0,0,0,0,0,0,0,0,0,0,0,0,0,0,0,0,0,0,0,0,0,0,0,0,0,0,0,0,0,0,0,0,0,0,0,0,0,0,0,0,0,0,0,0,0,0,0,0,0,0,0,0,0,0,0,0,0,0,0,0,0,0,0,0,0,0,0,0,0,0,0,0,0,0,0,0,0,0,0,0,0,0,0,0,0,0,0,0,0,0,0,0,0,0,0,0,0,0,0,0,0,0,0,0,0,0,0,0,0,0,0,0,0,0,0,0,0,0,0,0],"sum_hessian":[4.5035E4,4.2997E4,2.038E3,4.2884E4,1.13E2,1.498E3,5.4E2,4.128E4,1.604E3,9.3E1,2E1,8.4E2,6.58E2,4.82E2,5.8E1,4.1171E4,1.09E2,9.5E1,1.509E3,8.4E1,9E0,9E0,1.1E1,7.55E2,8.5E1,6.27E2,3.1E1,4.61E2,2.1E1,4.8E1,1E1,7E0,4.1164E4,3.2E1,7.7E1,8E0,8.7E1,5.5E1,1.454E3,5.6E1,2.8E1,6.61E2,9.4E1,4.19E2,2.08E2,3.36E2,1.25E2,1E1,1.1E1,2.2E1,2.6E1,4.115E4,1.4E1,1.2E1,2E1,5.4E1,2.3E1,4.7E1,8E0,1.042E3,4.12E2,2.4E1,3.95E2,9E0,1.99E2,2.17E2,1.19E2,6.9E1,5.6E1,1.6E1,6E0,1.9E1,7E0,4.113E4,2E1,4.4E1,1E1,1.7E1,6E0,3.1E1,1.6E1,1.003E3,3.9E1,4.01E2,1.1E1,1.05E2,9.4E1,1.38E2,7.9E1,7.3E1,4.6E1,5.6E1,1.3E1,4.2E1,1.4E1,8E0,1.1E1,3.9548E4,1.582E3,6E0,1.4E1,1.9E1,2.5E1,6E0,1.1E1,5.1E2,4.93E2,2.6E1,1.3E1,2.01E2,2E2,6E0,1.32E2,1.9E1,2.7E1,3.3E1,9E0,3.9539E4,9E0,1.69E2,1.413E3,7E0,7E0,1.1E1,8E0,1.6E1,9E0,9.7E1,4.13E2,4.84E2,9E0,1.4E1,1.2E1,6E0,7E0,1.6E1,1.84E2,2.6E1,7E0,1.8E1,3.9521E4,1.7E1,1.52E2,3.98E2,1.015E3,1E1,6E0,4.06E2,7.8E1,7E0,7E0,3.2E1,1.52E2],"tree_param":{"num_deleted":"0","num_feature":"54","num_nodes":"153","size_leaf_vector":"1"}},{"base_weights":[3.72686E-3,-1.5627605E-1,3.202052E0,-1.8291886E-1,5.09688E-1,2.5776935E0,3.7366567E0,-1.83429E-1,1.0294337E0,4.437996E-1,1.2158759E0,1.9839308E0,2.8618126E0,3.5509553E0,4.84667E0,-1.8411009E-1,3.9744575E-2,2.097863E-1,1.6653746E-2,3.591229E-1,6.466608E-1,8.875851E-2,1.1803187E-1,1.4119144E-1,2.1494608E0,2.239365E-1,2.5354186E-1,2.8289035E-1,3.6273525E0,4.6646647E0,6.560351E-1,-1.8660563E-1,-1.4750184E-1,3.0321412E-2,7.967988E-3,3.1576395E-1,3.9713734E-1,6.3381886E-1,1.2722296E-1,1.7339554E-1,1.9518857E-1,3.0659783E-1,3.471141E-1,3.846888E-1,4.6568885E-1,-1.8664658E-1,2.6485575E-3,-1.553421E-1,-6.16556E-2,-6.105123E-2,5.3609405E-2,6.9086686E-2,3.0911607E-1,3.2715615E-2,3.5394013E-2,4.8724327E-2,6.8884736E-1,-1.5915172E-2,-7.7273054E-3,-1.5696111E-1,-7.29041E-2,-8.339589E-2,2.441735E-2,-8.537332E-3,-4.088562E-3,1.54179875E-2,3.2985855E-2,1.3854562E-2,3.1351906E-1,5.7188343E-2,7.087193E-2,-1.626588E-1,-1.371411E-1,-1.8311114E-3,-8.220732E-2,-9.961333E-2,-5.9638977E-2,-2.5675634E-2,5.1626004E-2,1.8245462E-2,5.965543E-3,2.526345E-2,2.769969E-2,-1.5556979E-1,-1.7290191E-1,-1.2422637E-2,-9.281248E-3,-6.7573525E-2,-1.0459946E-2,-1.1196498E-1,-8.002046E-2,-6.56021E-2,-1.4887303E-3,-3.0788821E-3,-2.4787817E-4,7.302451E-3,3.055997E-2,-7.340947E-4,2.8338851E-2,-1.3311904E-2,-5.200932E-3,-1.509288E-2,-1.3375249E-2,-8.008483E-3,-2.4502904E-3,-1.0156217E-2,-7.2809514E-3,-7.27506E-3,-4.292456E-3,-5.937332E-3,-1.6694834E-3,2.3027778E-5,3.8063298E-3,5.9306686E-4,3.2795502E-3],"categories":[],"categories_nodes":[],"categories_segments":[],"categories_sizes":[],"default_left":[0,0,0,0,0,0,0,0,0,0,0,0,0,0,0,0,0,0,0,0,0,0,0,0,0,0,0,0,0,0,0,0,0,0,0,0,0,0,0,0,0,0,0,0,0,0,0,0,0,0,0,0,0,0,0,0,0,0,0,0,0,0,0,0,0,0,0,0,0,0,0,0,0,0,0,0,0,0,0,0,0,0,0,0,0,0,0,0,0,0,0,0,0,0,0,0,0,0,0,0,0,0,0,0,0,0,0,0,0,0,0,0,0,0,0],"id":1,"left_children":[1,3,5,7,9,11,13,15,17,19,21,23,25,27,29,31,33,-1,-1,35,37,-1,-1,-1,39,-1,-1,-1,41,43,-1,45,47,-1,49,51,53,55,-1,-1,-1,-1,-1,-1,-1,57,-1,59,61,63,65,-1,67,-1,-1,-1,69,-1,-1,71,73,75,77,-1,-1,-1,79,-1,81,-1,-1,83,85,-1,87,89,91,93,95,97,-1,-1,-1,99,101,-1,-1,103,-1,105,107,109,-1,-1,-1,-1,111,-1,113,-1,-1,-1,-1,-1,-1,-1,-1,-1,-1,-1,-1,-1,-1,-1,-1],"loss_changes":[2.3010906E4,7.5984033E2,7.115762E2,2.5497437E1,7.640393E1,1.6479395E2,2.3159082E2,6.26416E0,2.0432274E1,2.5775452E1,3.5537872E0,1.6093994E1,1.4739258E1,1.3275391E1,7.255176E1,3.7265625E0,1.2432666E0,0E0,0E0,1.6846466E0,4.4122314E0,0E0,0E0,0E0,1.696106E0,0E0,0E0,0E0,5.080078E0,1.0199463E1,0E0,3.5009766E-1,1.7527809E0,0E0,3.61006E-1,1.514061E0,5.2116394E-2,1.3191681E0,0E0,0E0,0E0,0E0,0E0,0E0,0E0,4.1625977E-2,0E0,3.078575E-1,4.1524994E-1,1.5928686E-2,1.7174572E-1,0E0,2.830658E-1,0E0,0E0,0E0,3.4780884E-1,0E0,0E0,2.4687576E-1,1.809293E-2,5.984831E-2,6.187131E-2,0E0,0E0,0E0,2.9092066E-2,0E0,3.722763E-2,0E0,0E0,1.1089325E-1,1.1305714E-1,0E0,1.322937E-2,1.4645815E-2,1.4886916E-2,2.1192795E-3,1.5704364E-2,1.2854252E-2,0E0,0E0,0E0,4.589653E-2,2.6762009E-2,0E0,0E0,2.5454223E-2,0E0,4.0614605E-4,3.2514334E-5,7.892311E-3,0E0,0E0,0E0,0E0,6.5305717E-3,0E0,5.3938087E-3,0E0,0E0,0E0,0E0,0E0,0E0,0E0,0E0,0E0,0E0,0E0,0E0,0E0,0E0,0E0,0E0],"parents":[2147483647,0,0,1,1,2,2,3,3,4,4,5,5,6,6,7,7,8,8,9,9,10,10,11,11,12,12,13,13,14,14,15,15,16,16,19,19,20,20,24,24,28,28,29,29,31,31,32,32,34,34,35,35,36,36,37,37,45,45,47,47,48,48,49,49,50,50,52,52,56,56,59,59,60,60,61,61,62,62,66,66,68,68,71,71,72,72,74,74,75,75,76,76,77,77,78,78,79,79,83,83,84,84,87,87,89,89,90,90,91,91,96,96,98,98],"right_children":[2,4,6,8,10,12,14,16,18,20,22,24,26,28,30,32,34,-1,-1,36,38,-1,-1,-1,40,-1,-1,-1,42,44,-1,46,48,-1,50,52,54,56,-1,-1,-1,-1,-1,-1,-1,58,-1,60,62,64,66,-1,68,-1,-1,-1,70,-1,-1,72,74,76,78,-1,-1,-1,80,-1,82,-1,-1,84,86,-1,88,90,92,94,96,98,-1,-1,-1,100,102,-1,-1,104,-1,106,108,110,-1,-1,-1,-1,112,-1,114,-1,-1,-1,-1,-1,-1,-1,-1,-1,-1,-1,-1,-1,-1,-1,-1],"split_conditions":[5.653533E6,3.6632706E5,3.6400084E7,3.3921694E5,2.115723E6,1.6096445E7,1.1690454E8,4E0,4.053116E0,1.0823E6,3.397524E6,8.077714E6,2.4961736E7,5.4408588E7,3.64E2,4.8E1,2.16E2,2.097863E-1,1.6653746E-2,8.111892E5,2.4E1,8.875851E-2,1.1803187E-1,1.4119144E-1,1.1954734E7,2.239365E-1,2.5354186E-1,2.8289035E-1,8.5139256E7,2.8205347E8,6.560351E-1,1.4147402E5,6.3906906E4,3.0321412E-2,1.729679E5,6E0,8.984022E5,1.4273639E6,1.2722296E-1,1.7339554E-1,1.9518857E-1,3.0659783E-1,3.471141E-1,3.846888E-1,4.6568885E-1,4.665494E4,2.6485575E-3,5.9E1,1.3837098E5,3.0828E4,-1.8532859E0,6.9086686E-2,6.067319E5,3.2715615E-2,3.5394013E-2,4.8724327E-2,5.2606294E5,-1.5915172E-2,-7.7273054E-3,3.1202078E4,1E0,7.4E1,-8.2E1,-8.537332E-3,-4.088562E-3,1.54179875E-2,2.928071E5,1.3854562E-2,7.250829E5,5.7188343E-2,7.087193E-2,-4.4E1,5E1,-1.8311114E-3,4.7273764E-1,8.726406E4,1.1565304E5,7.9298016E2,2.2040707E-1,2.0181798E5,5.965543E-3,2.526345E-2,2.769969E-2,8.639288E4,2.760887E2,-1.2422637E-2,-9.281248E-3,3.3173466E-1,-1.0459946E-2,7.41579E1,1.0731221E3,6.55E1,-1.4887303E-3,-3.0788821E-3,-2.4787817E-4,7.302451E-3,2.0317697E5,-7.340947E-4,-1.6480687E0,-1.3311904E-2,-5.200932E-3,-1.509288E-2,-1.3375249E-2,-8.008483E-3,-2.4502904E-3,-1.0156217E-2,-7.2809514E-3,-7.27506E-3,-4.292456E-3,-5.937332E-3,-1.6694834E-3,2.3027778E-5,3.8063298E-3,5.9306686E-4,3.2795502E-3],"split_indices":[35,35,35,37,35,35,35,5,34,35,35,35,35,35,4,28,29,0,0,35,11,0,0,0,35,0,0,0,35,35,0,35,37,0,35,4,35,35,0,0,0,0,0,0,0,35,0,1,37,34,42,0,35,0,0,0,34,0,0,37,3,27,22,0,0,0,35,0,35,0,0,24,27,0,0,37,37,33,0,35,0,0,0,34,37,0,0,0,0,29,33,31,0,0,0,0,37,0,42,0,0,0,0,0,0,0,0,0,0,0,0,0,0,0,0],"split_type":[0,0,0,0,0,0,0,0,0,0,0,0,0,0,0,0,0,0,0,0,0,0,0,0,0,0,0,0,0,0,0,0,0,0,0,0,0,0,0,0,0,0,0,0,0,0,0,0,0,0,0,0,0,0,0,0,0,0,0,0,0,0,0,0,0,0,0,0,0,0,0,0,0,0,0,0,0,0,0,0,0,0,0,0,0,0,0,0,0,0,0,0,0,0,0,0,0,0,0,0,0,0,0,0,0,0,0,0,0,0,0,0,0,0,0],"sum_hessian":[4.4965E4,4.2823E4,2.142E3,4.1176E4,1.647E3,9.89E2,1.153E3,4.1159E4,1.7E1,1.507E3,1.4E2,3.21E2,6.68E2,9.89E2,1.64E2,4.1034E4,1.25E2,6E0,1.1E1,1.064E3,4.43E2,7E1,7E1,1.09E2,2.12E2,2.18E2,4.5E2,2.48E2,7.41E2,1.55E2,9E0,3.8413E4,2.621E3,1.1E1,1.14E2,4.99E2,5.65E2,4.37E2,6E0,1.19E2,9.3E1,6.95E2,4.6E1,1.32E2,2.3E1,3.8406E4,7E0,2.401E3,2.2E2,4.5E1,6.9E1,6E0,4.93E2,3.29E2,2.36E2,2.07E2,2.3E2,3.8399E4,7E0,2.354E3,4.7E1,1.76E2,4.4E1,1E1,3.5E1,9E0,6E1,1.5E1,4.78E2,2.06E2,2.4E1,1.825E3,5.29E2,8E0,3.9E1,1.03E2,7.3E1,1.5E1,2.9E1,4.4E1,1.6E1,1.95E2,2.83E2,1.084E3,7.41E2,4.04E2,1.25E2,3E1,9E0,6.1E1,4.2E1,6.3E1,1E1,9E0,6E0,1E1,1.9E1,1.1E1,3.3E1,1.077E3,7E0,5.85E2,1.56E2,1.7E1,1.3E1,4.6E1,1.5E1,3.4E1,8E0,5.7E1,6E0,7E0,1.2E1,1.2E1,2.1E1],"tree_param":{"num_deleted":"0","num_feature":"54","num_nodes":"115","size_leaf_vector":"1"}},{"base_weights":[-1.3935164E-3,-1.4476891E-1,2.892046E0,-1.6750552E-1,4.4561285E-1,2.3268292E0,3.4416573E0,-1.67924E-1,1.0416459E0,3.9070567E-1,9.9185497E-1,1.751574E0,2.614238E0,3.259132E0,4.4509706E0,-1.695585E-1,-8.980482E-2,1.7326626E-1,2.0618683E-2,3.2183805E-1,5.6651247E-1,8.130731E-1,1.0851828E0,1.491164E0,1.925623E0,2.4044957E0,2.3290871E-1,2.6155564E-1,3.3302424E0,3.5292754E-1,5.7275944E0,-1.7067277E-1,-1.4779311E-1,-1.2157289E-1,-4.298402E-2,2.806355E-1,3.607604E-1,9.4200924E-2,5.574373E-1,9.113178E-2,6.51119E-2,8.524988E-2,1.00344434E-1,1.20818295E-1,1.347667E-1,1.570893E-1,1.7580035E-1,1.9502385E-1,2.1250688E-1,2.8096372E-1,3.1980744E-1,4.2667148E-1,5.841032E-1,-1.7074627E-1,4.3142337E-2,-9.737563E-2,-1.5832429E-1,-5.2899484E-2,-1.2932633E-1,6.950921E-2,-5.713977E-2,1.3270052E-2,2.8664172E-1,2.956955E-2,3.168397E-2,5.0777066E-1,5.1991276E-2,-1.4558933E-2,-8.460136E-3,5.0925063E-3,1.3311986E-3,-3.900276E-2,-1.129481E-1,-1.4769119E-1,-1.4490022E-2,-6.01397E-2,-1.837936E-3,-9.469671E-3,-1.148314E-2,5.3926535E-2,1.0129427E-2,-7.980789E-2,3.5093155E-2,2.3037761E-2,2.5446054E-2,3.6746964E-2,4.4755775E-2,-1.6122269E-2,3.3293448E-3,-1.272523E-1,-1.0081415E-1,-1.1437618E-2,-1.2731892E-2,-4.313139E-3,-6.65979E-3,7.7076494E-3,1.8463984E-2,-3.8506083E-2,-9.032901E-2,1.7636072E-2,5.5360673E-3,-3.7034906E-2,2.4656044E-2,-8.246694E-3,-1.1215931E-2,-6.4000296E-3,-9.550959E-3,1.964081E-3,3.40878E-4,-1.9532483E-2,-4.461313E-3,-1.07604824E-1,-4.9476672E-2,-1.8984143E-3,2.6188465E-2,1.7167749E-3,-5.6378986E-3,3.81087E-3,-6.207128E-4,-3.7362485E-4,-2.1186513E-3,-7.5659365E-3,-1.0223495E-2,-5.918939E-3,-3.1498692E-3,6.440576E-4,2.9636133E-3],"categories":[],"categories_nodes":[],"categories_segments":[],"categories_sizes":[],"default_left":[0,0,0,0,0,0,0,0,0,0,0,0,0,0,0,0,0,0,0,0,0,0,0,0,0,0,0,0,0,0,0,0,0,0,0,0,0,0,0,0,0,0,0,0,0,0,0,0,0,0,0,0,0,0,0,0,0,0,0,0,0,0,0,0,0,0,0,0,0,0,0,0,0,0,0,0,0,0,0,0,0,0,0,0,0,0,0,0,0,0,0,0,0,0,0,0,0,0,0,0,0,0,0,0,0,0,0,0,0,0,0,0,0,0,0,0,0,0,0,0,0,0,0,0,0,0,0],"id":2,"left_children":[1,3,5,7,9,11,13,15,17,19,21,23,25,27,29,31,33,-1,-1,35,37,39,41,43,45,47,-1,-1,49,-1,51,53,55,57,59,61,63,-1,65,-1,-1,-1,-1,-1,-1,-1,-1,-1,-1,-1,-1,-1,-1,67,69,71,73,75,77,79,81,-1,83,-1,-1,85,-1,-1,-1,-1,-1,87,89,91,-1,93,-1,-1,-1,95,-1,97,99,-1,-1,-1,-1,-1,101,103,105,-1,-1,-1,-1,-1,107,109,111,113,-1,115,117,-1,-1,-1,-1,-1,-1,119,-1,121,123,-1,125,-1,-1,-1,-1,-1,-1,-1,-1,-1,-1,-1,-1],"loss_changes":[1.8718951E4,5.7711255E2,6.588574E2,2.0974243E1,4.76344E1,1.7210498E2,1.9363477E2,5.269043E0,1.1106341E1,1.7452057E1,2.0538025E0,1.4821533E1,1.4832031E1,8.758789E0,5.6976562E1,9.622803E-1,1.2552595E0,0E0,0E0,1.6128311E0,1.7180634E0,3.0239487E-1,2.567215E-1,7.122803E-2,9.3774414E-1,5.0634766E-1,0E0,0E0,5.294922E0,0E0,1.3399292E1,6.130371E-1,1.0354309E0,2.597971E-1,5.492061E-1,3.4965134E-1,9.803772E-3,0E0,8.959427E-1,0E0,0E0,0E0,0E0,0E0,0E0,0E0,0E0,0E0,0E0,0E0,0E0,0E0,0E0,9.521484E-3,2.8983187E-3,3.0480552E-1,1.8148804E-1,8.319542E-3,2.9880047E-2,2.0686194E-2,6.4313185E-1,0E0,4.4986725E-2,0E0,0E0,1.6126251E-1,0E0,0E0,0E0,0E0,0E0,4.7326586E-1,3.3871412E-2,1.4133453E-3,0E0,8.454621E-4,0E0,0E0,0E0,3.4519874E-2,0E0,1.0094845E-1,2.7888693E-2,0E0,0E0,0E0,0E0,0E0,4.9195725E-2,2.887249E-3,3.31012E-2,0E0,0E0,0E0,0E0,0E0,1.7371494E-5,1.0371327E-2,1.3006258E-1,1.377169E-2,0E0,3.436766E-2,2.6075263E-2,0E0,0E0,0E0,0E0,0E0,0E0,7.2700996E-4,0E0,2.0077586E-2,9.903595E-3,0E0,3.6202166E-3,0E0,0E0,0E0,0E0,0E0,0E0,0E0,0E0,0E0,0E0,0E0,0E0],"parents":[2147483647,0,0,1,1,2,2,3,3,4,4,5,5,6,6,7,7,8,8,9,9,10,10,11,11,12,12,13,13,14,14,15,15,16,16,19,19,20,20,21,21,22,22,23,23,24,24,25,25,28,28,30,30,31,31,32,32,33,33,34,34,35,35,36,36,38,38,53,53,54,54,55,55,56,56,57,57,58,58,59,59,60,60,62,62,65,65,71,71,72,72,73,73,75,75,79,79,81,81,82,82,88,88,89,89,90,90,96,96,97,97,98,98,99,99,101,101,102,102,109,109,111,111,112,112,114,114],"right_children":[2,4,6,8,10,12,14,16,18,20,22,24,26,28,30,32,34,-1,-1,36,38,40,42,44,46,48,-1,-1,50,-1,52,54,56,58,60,62,64,-1,66,-1,-1,-1,-1,-1,-1,-1,-1,-1,-1,-1,-1,-1,-1,68,70,72,74,76,78,80,82,-1,84,-1,-1,86,-1,-1,-1,-1,-1,88,90,92,-1,94,-1,-1,-1,96,-1,98,100,-1,-1,-1,-1,-1,102,104,106,-1,-1,-1,-1,-1,108,110,112,114,-1,116,118,-1,-1,-1,-1,-1,-1,120,-1,122,124,-1,126,-1,-1,-1,-1,-1,-1,-1,-1,-1,-1,-1,-1],"split_conditions":[5.005446E6,3.6632706E5,3.806912E7,3.600092E5,1.7517831E6,1.5111242E7,1.1690454E8,3.1466008E4,-1.4895834E0,1.01323006E6,2.8927538E6,8.077714E6,2.6027324E7,5.6108012E7,2.8205347E8,4.776923E1,-7.9E1,1.7326626E-1,2.0618683E-2,8.111892E5,-2.1052629E-1,-9.2E1,3.397524E6,6.149283E6,1.1954734E7,2.020355E7,2.3290871E-1,2.6155564E-1,8.5139256E7,3.5292754E-1,1.95E2,1.0272193E5,-4.7058263E-1,-4.7061718E-1,-4.7063828E-1,6.067319E5,8.8426494E5,9.4200924E-2,1.4273639E6,9.113178E-2,6.51119E-2,8.524988E-2,1.00344434E-1,1.20818295E-1,1.347667E-1,1.570893E-1,1.7580035E-1,1.9502385E-1,2.1250688E-1,2.8096372E-1,3.1980744E-1,4.2667148E-1,5.841032E-1,4.665494E4,-8.8E1,-4.706329E-1,-4.7046342E-1,1.5829492E5,-4.7058985E-1,1.692772E1,2.0181798E5,1.3270052E-2,7.250829E5,2.956955E-2,3.168397E-2,1.2355091E6,5.1991276E-2,-1.4558933E-2,-8.460136E-3,5.0925063E-3,1.3311986E-3,-1.1058722E0,-5.3E1,-4.7055125E-1,-1.4490022E-2,-4.7062534E-1,-1.837936E-3,-9.469671E-3,-1.148314E-2,-4.706425E-1,1.0129427E-2,-4.7062534E-1,2.928071E5,2.3037761E-2,2.5446054E-2,3.6746964E-2,4.4755775E-2,-1.6122269E-2,-8E1,-4.7062534E-1,-4.706089E-1,-1.1437618E-2,-1.2731892E-2,-4.313139E-3,-6.65979E-3,7.7076494E-3,-4.7063935E-1,-4.706329E-1,1.0272193E5,4.225893E0,5.5360673E-3,-8.7E1,-7.1E1,-8.246694E-3,-1.1215931E-2,-6.4000296E-3,-9.550959E-3,1.964081E-3,3.40878E-4,-4.706361E-1,-4.461313E-3,-4.706089E-1,1.4147402E5,-1.8984143E-3,6.3474895E4,1.7167749E-3,-5.6378986E-3,3.81087E-3,-6.207128E-4,-3.7362485E-4,-2.1186513E-3,-7.5659365E-3,-1.0223495E-2,-5.918939E-3,-3.1498692E-3,6.440576E-4,2.9636133E-3],"split_indices":[35,35,35,38,35,35,35,38,42,35,35,35,35,35,35,29,25,0,0,35,39,25,35,35,35,35,0,0,35,0,4,35,7,7,7,35,35,0,35,0,0,0,0,0,0,0,0,0,0,0,0,0,0,35,23,7,7,38,7,33,35,0,35,0,0,35,0,0,0,0,0,0,24,7,0,7,0,0,0,7,0,7,35,0,0,0,0,0,22,7,7,0,0,0,0,0,7,7,35,32,0,22,22,0,0,0,0,0,0,7,0,7,35,0,38,0,0,0,0,0,0,0,0,0,0,0,0],"split_type":[0,0,0,0,0,0,0,0,0,0,0,0,0,0,0,0,0,0,0,0,0,0,0,0,0,0,0,0,0,0,0,0,0,0,0,0,0,0,0,0,0,0,0,0,0,0,0,0,0,0,0,0,0,0,0,0,0,0,0,0,0,0,0,0,0,0,0,0,0,0,0,0,0,0,0,0,0,0,0,0,0,0,0,0,0,0,0,0,0,0,0,0,0,0,0,0,0,0,0,0,0,0,0,0,0,0,0,0,0,0,0,0,0,0,0,0,0,0,0,0,0,0,0,0,0,0,0],"sum_hessian":[4.5122E4,4.2992E4,2.13E3,4.1398E4,1.594E3,1.051E3,1.079E3,4.1384E4,1.4E1,1.449E3,1.45E2,3.51E2,7E2,9.15E2,1.64E2,4.0535E4,8.49E2,6E0,8E0,1.042E3,4.07E2,5.1E1,9.4E1,1.42E2,2.09E2,2.54E2,4.46E2,2.52E2,6.63E2,1.33E2,3.1E1,3.8557E4,1.978E3,5.05E2,3.44E2,5.08E2,5.34E2,6E0,4.01E2,7E0,4.4E1,5.1E1,4.3E1,8.1E1,6.1E1,1.33E2,7.6E1,1.13E2,1.41E2,6.15E2,4.8E1,2E1,1.1E1,3.8544E4,1.3E1,3.43E2,1.635E3,5.2E1,4.53E2,3.8E1,3.06E2,2.4E1,4.84E2,2.4E2,2.94E2,2.08E2,1.93E2,3.8538E4,6E0,7E0,6E0,7.3E1,2.7E2,8.58E2,7.77E2,4.1E1,1.1E1,1.06E2,3.47E2,3E1,8E0,2.46E2,6E1,2.07E2,2.77E2,4E1,1.68E2,1.6E1,5.7E1,1.21E2,1.49E2,9.8E1,7.6E2,2.9E1,1.2E1,1.4E1,1.6E1,5.1E1,1.95E2,3.9E1,2.1E1,1.9E1,3.8E1,1.7E1,1.04E2,4.7E1,1.02E2,1E1,6E0,2.3E1,2.8E1,1.36E2,5.9E1,6E0,3.3E1,6E0,1.3E1,2.4E1,1.4E1,8E0,1.5E1,5.6E1,8E1,2.1E1,3.8E1,1.2E1,2.1E1],"tree_param":{"num_deleted":"0","num_feature":"54","num_nodes":"127","size_leaf_vector":"1"}},{"base_weights":[1.2184829E-3,-1.3159417E-1,2.6100934E0,-1.5356067E-1,4.079259E-1,1.8458353E0,2.9200318E0,-1.5374053E-1,4.2680673E-2,1.5675902E0,3.7850377E-1,1.7388036E0,2.946628E0,2.79466E0,3.9240587E0,-1.5412134E-1,5.139844E-2,2.7138764E-1,1.2617412E0,3.5701263E-1,9.567231E-1,1.3873364E0,1.9614401E0,2.5443172E0,3.3568648E-1,2.519446E0,2.9971707E0,3.6734877E0,5.4472923E-1,-1.5520272E-1,-9.81513E-2,3.9016802E-2,1.40023E-2,2.9886305E-1,1.8158522E0,2.9880768E-1,5.019136E-1,7.534261E-2,1.2094384E-1,3.721317E-2,1.4545826E0,1.03572E0,2.0757847E0,1.7975983E-1,2.4126329E-1,1.6837235E-1,2.1685627E-1,2.97431E0,3.623206E0,2.8861064E-1,3.2593027E-1,-1.5614085E-1,-1.3560134E-1,-1.1484562E-1,-4.5267295E-2,-1.17459595E-2,1.1750312E-1,1.4997885E-2,3.2917596E-2,1.31319E-1,1.8856223E-1,-3.2222968E-2,3.0667424E-1,3.5915695E-2,5.373542E-1,1.3302764E0,1.6521062E0,8.024331E-2,1.0553805E-1,1.9940246E0,1.9603506E-1,2.0253901E-1,2.5458685E-1,2.4903463E-1,3.3495605E-1,-1.5618852E-1,5.5833254E-3,-1.3635038E-1,-5.9739506E-4,-1.23712316E-1,-9.066289E-2,-6.0799863E-2,1.3117198E-2,-4.1075617E-2,1.0877066E-2,-0E0,2.2321565E-2,-4.622289E-3,-9.876999E-3,2.6688582E-1,3.372542E-1,-1.1742211E-2,9.148377E-2,1.4004819E-1,5.1987314E-1,1.2447865E0,1.2989089E-1,1.2162396E-1,1.49406E-1,1.9003193E0,1.8747543E-1,-1.3318668E-2,-9.446391E-3,-1.1315537E-1,-1.407458E-1,-1.0972072E-2,-9.843904E-3,-9.228625E-2,-3.4116448E-3,-7.788405E-2,-3.9605916E-2,-1.3516603E-2,3.7587438E-2,-4.24288E-3,-5.4179097E-4,-7.323727E-3,4.9544196E-3,-0E0,-1.7348483E-3,4.0747777E-2,2.6379487E-1,3.2467505E-1,6.5326706E-2,-6.1256066E-3,2.3542515E-3,5.0685336E-3,1.0894284E-2,4.7721114E-2,4.814685E-1,1.1501234E0,1.1303512E-1,1.4834158E-1,1.7047198E-1,-1.1932939E-2,-1.06666125E-1,-1.3187055E-2,-1.3679874E-1,-5.224849E-3,-8.054768E-3,-7.6661496E-3,-5.3376253E-3,1.3937418E-2,-5.4190416E-2,-3.418206E-3,1.313196E-3,5.4011983E-3,8.1930135E-4,-2.0591465E-3,-0E0,1.1192138E-1,2.7171978E-1,3.0763486E-1,2.8747268E-2,3.0048396E-2,4.89056E-1,8.5088305E-2,1.0620292E-1,-7.0464783E-3,-9.512242E-3,-1.1796091E-2,-9.612719E-3,-1.7999966E-3,4.5653633E-3,-5.32803E-3,-1.4905281E-3,-3.7001944E-4,9.949885E-4,2.606264E-3,1.3342839E-2,2.222229E-2,3.225675E-2,2.9487336E-2,2.5647717E-2,4.1036975E-2,4.907429E-2],"categories":[],"categories_nodes":[],"categories_segments":[],"categories_sizes":[],"default_left":[0,0,0,0,0,0,0,0,0,0,0,0,0,0,0,0,0,0,0,0,0,0,0,0,0,0,0,0,0,0,0,0,0,0,0,0,0,0,0,0,0,0,0,0,0,0,0,0,0,0,0,0,0,0,0,0,0,0,0,0,0,0,0,0,0,0,0,0,0,0,0,0,0,0,0,0,0,0,0,0,0,0,0,0,0,0,0,0,0,0,0,0,0,0,0,0,0,0,0,0,0,0,0,0,0,0,0,0,0,0,0,0,0,0,0,0,0,0,0,0,0,0,0,0,0,0,0,0,0,0,0,0,0,0,0,0,0,0,0,0,0,0,0,0,0,0,0,0,0,0,0,0,0,0,0,0,0,0,0,0,0,0,0,0,0,0,0,0,0,0,0,0,0,0,0],"id":3,"left_children":[1,3,5,7,9,11,13,15,-1,17,19,21,23,25,27,29,31,-1,33,35,37,39,41,43,-1,45,47,49,-1,51,53,-1,55,57,59,61,63,-1,-1,-1,65,67,69,-1,-1,-1,-1,71,73,-1,-1,75,77,79,81,83,85,-1,-1,-1,-1,87,89,91,93,95,97,-1,-1,99,-1,-1,-1,-1,-1,101,-1,103,-1,105,107,109,111,113,115,-1,-1,-1,117,119,121,123,125,-1,127,129,-1,-1,-1,131,-1,-1,-1,133,135,-1,-1,137,-1,139,141,143,145,-1,-1,147,-1,-1,-1,-1,149,151,-1,-1,-1,-1,-1,-1,153,155,-1,-1,-1,-1,157,-1,159,-1,-1,-1,-1,161,163,-1,-1,-1,-1,-1,165,167,169,171,-1,-1,173,-1,-1,-1,-1,-1,-1,-1,-1,-1,-1,-1,-1,-1,-1,-1,-1,-1,-1,-1,-1],"loss_changes":[1.5602498E4,5.078228E2,5.1469434E2,4.8567505E0,5.6921173E1,7.235254E1,1.9130762E2,3.222168E0,0E0,1.8894638E1,2.0155884E1,4.3970703E1,1.8412598E1,7.416406E1,9.7491455E1,2.4717407E0,1.1394706E0,0E0,1.8590122E1,1.3221848E1,1.4559479E0,1.4057739E1,3.6342896E1,2.8102112E0,0E0,5.795166E0,7.4536133E0,2.0737305E0,0E0,7.227783E-1,6.810584E-1,0E0,1.9195455E-1,9.859145E-2,1.1403046E0,2.9468918E0,7.4255447E0,0E0,0E0,0E0,4.2820435E0,2.7429962E-1,3.98938E0,0E0,0E0,0E0,0E0,2.737793E0,1.5024109E0,0E0,0E0,4.1326904E-1,1.7194748E-1,1.1502838E-1,1.7288727E-1,3.868621E-2,2.3646934E-1,0E0,0E0,0E0,0E0,1.0314448E-2,1.2852783E0,8.904878E-2,7.7300415E0,1.4045715E0,8.2624817E-1,0E0,0E0,2.8682861E0,0E0,0E0,0E0,0E0,0E0,1.965332E-2,0E0,1.719284E-1,0E0,3.3664703E-3,6.9646835E-3,4.8543096E-2,2.6729276E-2,5.393613E-3,2.9022876E-2,0E0,0E0,0E0,1.6394625E-3,2.4231339E-1,3.2212524E0,4.337094E-2,8.114368E-3,0E0,5.0123596E-1,9.6847534E-2,0E0,0E0,0E0,1.244751E0,0E0,0E0,0E0,3.6895275E-2,6.628227E-2,0E0,0E0,2.6165247E-3,0E0,7.2233975E-3,5.5158183E-2,1.5244455E-2,1.2388375E-2,0E0,0E0,3.665417E-3,0E0,0E0,0E0,0E0,5.459671E-1,6.8668365E-2,0E0,0E0,0E0,0E0,0E0,0E0,1.1840439E-1,1.5219498E-1,0E0,0E0,0E0,0E0,1.7746687E-2,0E0,3.0111313E-2,0E0,0E0,0E0,0E0,2.1525811E-2,1.3132706E-2,0E0,0E0,0E0,0E0,0E0,1.0202619E-3,7.949147E-2,4.7434616E-1,7.966995E-3,0E0,0E0,1.9836426E-4,0E0,0E0,0E0,0E0,0E0,0E0,0E0,0E0,0E0,0E0,0E0,0E0,0E0,0E0,0E0,0E0,0E0,0E0,0E0,0E0],"parents":[2147483647,0,0,1,1,2,2,3,3,4,4,5,5,6,6,7,7,9,9,10,10,11,11,12,12,13,13,14,14,15,15,16,16,18,18,19,19,20,20,21,21,22,22,23,23,25,25,26,26,27,27,29,29,30,30,32,32,33,33,34,34,35,35,36,36,40,40,41,41,42,42,47,47,48,48,51,51,52,52,53,53,54,54,55,55,56,56,61,61,62,62,63,63,64,64,65,65,66,66,69,69,75,75,77,77,79,79,80,80,81,81,82,82,83,83,84,84,88,88,89,89,90,90,91,91,92,92,94,94,95,95,99,99,103,103,104,104,107,107,109,109,110,110,111,111,112,112,115,115,120,120,121,121,128,128,129,129,134,134,136,136,141,141,142,142,148,148,149,149,150,150,151,151,154,154],"right_children":[2,4,6,8,10,12,14,16,-1,18,20,22,24,26,28,30,32,-1,34,36,38,40,42,44,-1,46,48,50,-1,52,54,-1,56,58,60,62,64,-1,-1,-1,66,68,70,-1,-1,-1,-1,72,74,-1,-1,76,78,80,82,84,86,-1,-1,-1,-1,88,90,92,94,96,98,-1,-1,100,-1,-1,-1,-1,-1,102,-1,104,-1,106,108,110,112,114,116,-1,-1,-1,118,120,122,124,126,-1,128,130,-1,-1,-1,132,-1,-1,-1,134,136,-1,-1,138,-1,140,142,144,146,-1,-1,148,-1,-1,-1,-1,150,152,-1,-1,-1,-1,-1,-1,154,156,-1,-1,-1,-1,158,-1,160,-1,-1,-1,-1,162,164,-1,-1,-1,-1,-1,166,168,170,172,-1,-1,174,-1,-1,-1,-1,-1,-1,-1,-1,-1,-1,-1,-1,-1,-1,-1,-1,-1,-1,-1,-1],"split_conditions":[3.581688E5,1.8754585E0,2.7676785E6,3.3921694E5,-9.7333336E-1,2.5649493E0,2.1400661E0,7.2E2,4.2680673E-2,9.35037E-1,1.8595881E5,1.052554E6,3.8394523E0,5.3068855E6,1.93E2,2.8517008E4,-4.44444E-1,2.7138764E-1,4.9431086E4,2.1972246E0,2.3978953E0,1E1,7E0,8.5501194E5,3.3568648E-1,8E0,9.462052E6,7E0,5.4472923E-1,2.5E1,6.791997E4,3.9016802E-2,1.7917595E0,6.5E1,1.364E3,2.2300959E4,3.2950164E4,7.534261E-2,1.2094384E-1,3.721317E-2,4E0,9.1629076E-1,2.1977388E6,1.7975983E-1,2.4126329E-1,1.6837235E-1,2.1685627E-1,1.3862944E0,-3.9999998E-1,2.8861064E-1,3.2593027E-1,1.0347901E5,9.4086055E4,-1E1,1.3837098E5,1.5040774E0,3.8901805E4,1.4997885E-2,3.2917596E-2,1.31319E-1,1.8856223E-1,1.625388E4,1.2626068E5,1.625388E4,9.710537E0,7.386097E5,5.634971E5,8.024331E-2,1.0553805E-1,1.9459102E0,1.9603506E-1,2.0253901E-1,2.5458685E-1,2.4903463E-1,3.3495605E-1,1.1544299E4,5.5833254E-3,4.2915344E1,-5.9739506E-4,4.327607E4,5.877778E1,6.9E1,2.0317697E5,-1.3561057E0,4.4364215E4,-0E0,2.2321565E-2,-4.622289E-3,4.736154E2,2.453815E4,7.2E2,4E0,3.4E1,1.4004819E-1,1.392E3,0E0,1.2989089E-1,1.2162396E-1,1.49406E-1,1.514308E6,1.8747543E-1,-1.3318668E-2,-9.446391E-3,6.222835E-2,-1.9880525E0,-1.0972072E-2,-9.843904E-3,7.7E1,-3.4116448E-3,8.726406E4,1.5E1,5.3E1,1.5974045E1,-4.24288E-3,-5.4179097E-4,2.6659012E4,4.9544196E-3,-0E0,-1.7348483E-3,4.0747777E-2,5.262036E4,1.4554083E5,6.5326706E-2,-6.1256066E-3,2.3542515E-3,5.0685336E-3,1.0894284E-2,4.7721114E-2,7.546808E4,5.1272534E5,1.1303512E-1,1.4834158E-1,1.7047198E-1,-1.1932939E-2,5.2E1,-1.3187055E-2,3.8901805E4,-5.224849E-3,-8.054768E-3,-7.6661496E-3,-5.3376253E-3,7E0,1.33E2,-3.418206E-3,1.313196E-3,5.4011983E-3,8.1930135E-4,-2.0591465E-3,-1.3086218E0,3.2950164E4,1.7917595E0,-8.333333E-1,2.8747268E-2,3.0048396E-2,1.23836E5,8.5088305E-2,1.0620292E-1,-7.0464783E-3,-9.512242E-3,-1.1796091E-2,-9.612719E-3,-1.7999966E-3,4.5653633E-3,-5.32803E-3,-1.4905281E-3,-3.7001944E-4,9.949885E-4,2.606264E-3,1.3342839E-2,2.222229E-2,3.225675E-2,2.9487336E-2,2.5647717E-2,4.1036975E-2,4.907429E-2],"split_indices":[36,53,36,37,45,48,48,24,0,32,36,36,48,36,40,37,8,0,36,51,51,40,40,36,0,40,36,6,0,27,37,0,49,40,28,36,36,0,0,0,6,48,36,0,0,0,0,48,8,0,0,36,36,31,37,49,36,0,0,0,0,36,36,36,32,36,36,0,0,48,0,0,0,0,0,36,0,37,0,37,31,27,37,42,36,0,0,0,29,36,24,6,40,0,28,23,0,0,0,36,0,0,0,0,32,0,0,28,0,37,31,27,36,0,0,36,0,0,0,0,36,36,0,0,0,0,0,0,36,36,0,0,0,0,29,0,36,0,0,0,0,31,27,0,0,0,0,0,42,36,51,45,0,0,36,0,0,0,0,0,0,0,0,0,0,0,0,0,0,0,0,0,0,0,0],"split_type":[0,0,0,0,0,0,0,0,0,0,0,0,0,0,0,0,0,0,0,0,0,0,0,0,0,0,0,0,0,0,0,0,0,0,0,0,0,0,0,0,0,0,0,0,0,0,0,0,0,0,0,0,0,0,0,0,0,0,0,0,0,0,0,0,0,0,0,0,0,0,0,0,0,0,0,0,0,0,0,0,0,0,0,0,0,0,0,0,0,0,0,0,0,0,0,0,0,0,0,0,0,0,0,0,0,0,0,0,0,0,0,0,0,0,0,0,0,0,0,0,0,0,0,0,0,0,0,0,0,0,0,0,0,0,0,0,0,0,0,0,0,0,0,0,0,0,0,0,0,0,0,0,0,0,0,0,0,0,0,0,0,0,0,0,0,0,0,0,0,0,0,0,0,0,0],"sum_hessian":[4.5029E4,4.2848E4,2.181E3,4.1172E4,1.676E3,6.3E2,1.551E3,4.1161E4,1.1E1,4.1E1,1.635E3,5.75E2,5.5E1,1.38E3,1.71E2,4.1085E4,7.6E1,6E0,3.5E1,1.577E3,5.8E1,2.24E2,3.51E2,4E1,1.5E1,5.87E2,7.93E2,1.56E2,1.5E1,4.0305E4,7.8E2,6E0,7E1,1.3E1,2.2E1,1.126E3,4.51E2,5.1E1,7E0,1.5E1,2.09E2,3.9E1,3.12E2,1.7E1,2.3E1,2.6E1,5.61E2,7.67E2,2.6E1,5.6E1,1E2,3.846E4,1.845E3,5.92E2,1.88E2,5.6E1,1.4E1,6E0,7E0,1.4E1,8E0,2.6E1,1.1E3,3.2E1,4.19E2,1.3E2,7.9E1,2.8E1,1.1E1,2.31E2,8.1E1,1.6E1,7.51E2,9E0,1.7E1,3.8452E4,8E0,1.834E3,1.1E1,4.31E2,1.61E2,1.49E2,3.9E1,2.5E1,3.1E1,8E0,6E0,1.2E1,1.4E1,4.8E2,6.2E2,1.7E1,1.5E1,6E0,4.13E2,9.2E1,3.8E1,2.6E1,5.3E1,1.61E2,7E1,3.8433E4,1.9E1,2.95E2,1.539E3,2.63E2,1.68E2,1.55E2,6E0,8.1E1,6.8E1,1.8E1,2.1E1,1.9E1,6E0,2.2E1,9E0,7E0,7E0,6E0,4.74E2,6.03E2,1.7E1,7E0,1E1,9E0,6E0,2E2,2.13E2,4.5E1,4.7E1,6.4E1,9.7E1,5.5E1,2.4E2,3.35E2,1.204E3,1.2E1,1.43E2,4.3E1,3.8E1,1.4E1,5.4E1,1E1,8E0,1E1,1.1E1,8E0,1.4E1,2.4E1,4.5E2,2.6E2,3.43E2,1.3E1,2E2,1.9E1,2.6E1,4.3E1,1.97E2,1.128E3,7.6E1,7E0,7E0,4.3E1,1.1E1,8E0,6E0,9E0,1.5E1,4.09E2,4.1E1,3.6E1,2.24E2,1.86E2,1.4E1],"tree_param":{"num_deleted":"0","num_feature":"54","num_nodes":"175","size_leaf_vector":"1"}},{"base_weights":[-3.3142263E-4,-1.21005885E-1,2.4050908E0,-1.4006728E-1,3.8660312E-1,2.8764296E0,2.0491295E0,-1.4044419E-1,1.0276175E0,3.3478644E-1,1.0426978E0,2.8280277E0,4.842806E-1,1.5092617E0,2.2547624E0,-1.414455E-1,-2.2481773E-2,1.2438818E-1,3.9850112E-2,2.7370644E-1,4.5044646E-1,9.087433E-1,2.4985436E-1,2.87401E-1,2.7260473E0,1.2833495E0,1.7441497E0,2.2107272E0,2.9565103E0,-1.4285843E-1,-1.19598515E-1,-4.394526E-2,1.1350061E-1,2.7010554E-1,6.692964E-2,4.8504865E-1,2.860895E-1,8.927268E-2,8.260959E-1,2.7128801E0,3.1481692E-1,1.2251981E0,1.1886419E-1,1.674576E0,2.2472674E-1,2.309275E0,1.9431281E0,2.3674386E0,2.7704737E-1,-1.218173E-2,-5.0451756E-3,-7.143405E-2,-1.2850797E-1,5.2035913E-2,-5.5956848E-2,1.5212415E-2,6.649571E-2,-1.1402585E-2,2.7473432E-1,4.725983E-1,6.942101E-2,2.1340984E-1,3.4801278E-1,5.395222E-2,7.322112E-2,2.1873756E-1,2.3483254E-1,1.05867796E-1,7.807269E-2,1.3958602E-1,2.0932513E-1,2.2912204E0,2.3104179E-1,1.8623605E0,1.7993434E-1,1.7746797E-1,2.3802254E-1,-1.9722492E-2,-8.441144E-2,-1.1790199E-1,-1.4124663E-1,7.343059E-2,-8.962003E-4,-7.114489E-2,4.9998E-3,4.646873E-2,9.92949E-3,-3.280369E-3,7.0828595E-4,2.0482255E-2,3.0429873E-1,4.2627823E-1,4.398476E-2,1.4127234E-1,2.2190474E-2,3.5796005E-2,2.627753E-1,1.8537344E-1,2.011829E-1,1.455625E-1,1.650631E-1,-1.4971957E-2,1.6949713E-2,-8.64417E-3,-6.878859E-2,-1.18996926E-1,-1.0554921E-2,-1.4188185E-1,-5.036455E-3,4.8396267E-2,8.486029E-3,-3.5083722E-2,-8.57295E-2,-2.392894E-2,1.647148E-2,6.623947E-4,5.8946613E-2,2.8287353E-2,2.5333535E-2,2.0381356E-2,3.725264E-2,1.6004303E-2,5.468217E-3,1.53770195E-2,2.8476309E-2,7.195962E-2,-3.3787176E-2,-4.7723126E-2,-7.778821E-2,-9.379747E-3,-1.0437633E-2,-2.0029845E-3,-0E0,-1.2290107E-2,-1.1100953E-2,6.8804957E-3,7.383048E-4,-1.6759068E-2,-4.049295E-3,-8.759462E-2,-3.8696653E-3,-5.5194163E-4,-3.3756187E-3,-1.0905741E-3,2.4120009E-2,2.656378E-3,6.516839E-3,3.5838874E-3,1.0241932E-2,-4.544775E-3,6.551522E-4,-2.448612E-3,-4.459425E-3,-6.95846E-3,-2.4247756E-4,-2.33185E-4,-1.6765281E-3,-6.521733E-3,-8.310546E-3,1.0390338E-3,2.9490704E-3],"categories":[],"categories_nodes":[],"categories_segments":[],"categories_sizes":[],"default_left":[0,0,0,0,0,0,0,0,0,0,0,0,0,0,0,0,0,0,0,0,0,0,0,0,0,0,0,0,0,0,0,0,0,0,0,0,0,0,0,0,0,0,0,0,0,0,0,0,0,0,0,0,0,0,0,0,0,0,0,0,0,0,0,0,0,0,0,0,0,0,0,0,0,0,0,0,0,0,0,0,0,0,0,0,0,0,0,0,0,0,0,0,0,0,0,0,0,0,0,0,0,0,0,0,0,0,0,0,0,0,0,0,0,0,0,0,0,0,0,0,0,0,0,0,0,0,0,0,0,0,0,0,0,0,0,0,0,0,0,0,0,0,0,0,0,0,0,0,0,0,0,0,0,0,0,0,0,0,0,0,0],"id":4,"left_children":[1,3,5,7,9,11,13,15,17,19,21,23,-1,25,27,29,31,-1,-1,33,35,37,-1,-1,39,41,43,45,47,49,51,53,55,57,-1,59,61,-1,63,65,-1,67,-1,69,-1,71,73,75,-1,-1,-1,77,79,81,83,-1,85,87,89,91,-1,93,95,-1,-1,-1,-1,-1,-1,-1,-1,97,-1,99,-1,-1,-1,101,103,105,107,109,-1,111,113,115,-1,-1,-1,-1,117,119,-1,121,-1,-1,123,-1,-1,-1,-1,-1,125,-1,127,129,131,133,-1,135,-1,137,139,141,143,-1,145,-1,-1,-1,-1,-1,-1,-1,-1,147,149,151,153,-1,-1,-1,-1,-1,-1,-1,-1,155,-1,157,-1,-1,-1,-1,159,-1,-1,-1,-1,-1,-1,-1,-1,-1,-1,-1,-1,-1,-1,-1,-1],"loss_changes":[1.306617E4,4.1474316E2,3.5859668E2,1.8196838E1,5.256949E1,1.1966455E2,1.3484521E2,4.8709106E0,2.918416E0,1.0091766E1,2.7611824E1,4.6990723E1,0E0,1.71333E1,2.5010254E1,1.24823E0,1.0157138E0,0E0,0E0,1.6228409E0,2.7463074E0,8.5108185E-1,0E0,0E0,6.1274414E0,4.446106E-1,8.597046E0,2.037378E1,6.037689E0,4.0527344E-2,1.0583382E0,3.485446E-1,1.310882E-1,1.2311859E0,0E0,1.4981232E0,3.464942E-1,0E0,1.9084167E-1,2.0292969E0,0E0,1.3124084E-1,0E0,2.9919434E0,0E0,2.113037E0,1.588562E0,7.1517944E-2,0E0,0E0,0E0,2.5740957E-1,2.6837158E-1,4.727613E-2,2.5107664E-1,0E0,2.0303741E-2,9.444088E-3,8.9437866E-1,6.821289E-1,0E0,1.11940384E-1,2.2027493E-1,0E0,0E0,0E0,0E0,0E0,0E0,0E0,0E0,2.77417E0,0E0,5.2667236E-1,0E0,0E0,0E0,4.6059227E-1,7.369566E-2,1.2983799E-1,3.9152145E-2,9.27715E-3,0E0,1.0762441E-1,1.7549763E-2,7.6022744E-3,0E0,0E0,0E0,0E0,4.0023804E-2,3.240738E-1,0E0,4.8415363E-2,0E0,0E0,9.108865E-2,0E0,0E0,0E0,0E0,0E0,1.8185145E-1,0E0,2.5107205E-2,2.1566391E-2,2.1235477E-3,8.1214905E-3,0E0,1.4757007E-2,0E0,1.1679992E-2,5.040288E-3,2.074739E-3,9.3414765E-3,0E0,2.540622E-3,0E0,0E0,0E0,0E0,0E0,0E0,0E0,0E0,3.726934E-2,2.8863624E-2,8.665025E-4,2.9183745E-2,0E0,0E0,0E0,0E0,0E0,0E0,0E0,0E0,2.4020951E-4,0E0,6.66368E-3,0E0,0E0,0E0,0E0,2.1115653E-3,0E0,0E0,0E0,0E0,0E0,0E0,0E0,0E0,0E0,0E0,0E0,0E0,0E0,0E0,0E0,0E0],"parents":[2147483647,0,0,1,1,2,2,3,3,4,4,5,5,6,6,7,7,8,8,9,9,10,10,11,11,13,13,14,14,15,15,16,16,19,19,20,20,21,21,24,24,25,25,26,26,27,27,28,28,29,29,30,30,31,31,32,32,33,33,35,35,36,36,38,38,39,39,41,41,43,43,45,45,46,46,47,47,51,51,52,52,53,53,54,54,56,56,57,57,58,58,59,59,61,61,62,62,71,71,73,73,77,77,78,78,79,79,80,80,81,81,83,83,84,84,85,85,90,90,91,91,93,93,96,96,102,102,104,104,105,105,106,106,107,107,109,109,111,111,112,112,113,113,114,114,116,116,125,125,126,126,127,127,128,128,137,137,139,139,144,144],"right_children":[2,4,6,8,10,12,14,16,18,20,22,24,-1,26,28,30,32,-1,-1,34,36,38,-1,-1,40,42,44,46,48,50,52,54,56,58,-1,60,62,-1,64,66,-1,68,-1,70,-1,72,74,76,-1,-1,-1,78,80,82,84,-1,86,88,90,92,-1,94,96,-1,-1,-1,-1,-1,-1,-1,-1,98,-1,100,-1,-1,-1,102,104,106,108,110,-1,112,114,116,-1,-1,-1,-1,118,120,-1,122,-1,-1,124,-1,-1,-1,-1,-1,126,-1,128,130,132,134,-1,136,-1,138,140,142,144,-1,146,-1,-1,-1,-1,-1,-1,-1,-1,148,150,152,154,-1,-1,-1,-1,-1,-1,-1,-1,156,-1,158,-1,-1,-1,-1,160,-1,-1,-1,-1,-1,-1,-1,-1,-1,-1,-1,-1,-1,-1,-1,-1],"split_conditions":[3.0104952E6,1.38098E5,-4.7065482E-1,3.4266806E5,1.00859806E6,8.4E1,1.0140433E7,5.7540895E4,2.2888184E1,1.609438E0,7.171666E6,-6.315789E-1,4.842806E-1,6.83843E6,3.5249588E0,4.8E1,1.0529208E5,1.2438818E-1,3.9850112E-2,1.5696041E6,-4.706329E-1,-4.70649E-1,2.4985436E-1,2.87401E-1,5.8220244E7,5.501862E6,5.577326E0,-4.706544E-1,1.0012532E6,4.8165082E4,-4.7058985E-1,-4.7063828E-1,3.97E2,2.0128011E5,6.692964E-2,1.158994E6,1.4E1,8.927268E-2,8.979416E-1,6.337836E6,3.1481692E-1,1.4684892E5,1.1886419E-1,3E1,2.2472674E-1,2.7E1,-9.420833E1,3.73E2,2.7704737E-1,-1.218173E-2,-5.0451756E-3,-4.706329E-1,-4.7047636E-1,-1.2458943E0,5.3442E4,1.5212415E-2,3.1E1,3.0469895E3,2.9440116E5,3.600092E5,6.942101E-2,2.3904419E5,-4.7061718E-1,5.395222E-2,7.322112E-2,2.1873756E-1,2.3483254E-1,1.05867796E-1,7.807269E-2,1.3958602E-1,2.0932513E-1,2.8773784E7,2.3104179E-1,1.2858373E7,1.7993434E-1,1.7746797E-1,2.3802254E-1,2E0,-4.3E1,1.4E1,2.1728992E4,-1.4316069E0,-8.962003E-4,-4.7062534E-1,1.288E3,7.259202E4,9.92949E-3,-3.280369E-3,7.0828595E-4,2.0482255E-2,-4.706407E-1,3E0,4.398476E-2,7.142854E-2,2.2190474E-2,3.5796005E-2,2.3E1,1.8537344E-1,2.011829E-1,1.455625E-1,1.650631E-1,-1.4971957E-2,-4.706425E-1,-8.64417E-3,-4.7061718E-1,-4.7056052E-1,7E0,1.3767958E4,-5.036455E-3,-4.706425E-1,8.486029E-3,-4.706329E-1,4.091883E4,-4.7052515E-1,2.0794415E0,6.623947E-4,-1.6630435E0,2.8287353E-2,2.5333535E-2,2.0381356E-2,3.725264E-2,1.6004303E-2,5.468217E-3,1.53770195E-2,2.8476309E-2,9.7E1,1E0,-4.7062534E-1,3E0,-9.379747E-3,-1.0437633E-2,-2.0029845E-3,-0E0,-1.2290107E-2,-1.1100953E-2,6.8804957E-3,7.383048E-4,-4.706361E-1,-4.049295E-3,-4.706089E-1,-3.8696653E-3,-5.5194163E-4,-3.3756187E-3,-1.0905741E-3,9E0,2.656378E-3,6.516839E-3,3.5838874E-3,1.0241932E-2,-4.544775E-3,6.551522E-4,-2.448612E-3,-4.459425E-3,-6.95846E-3,-2.4247756E-4,-2.33185E-4,-1.6765281E-3,-6.521733E-3,-8.310546E-3,1.0390338E-3,2.9490704E-3],"split_indices":[34,34,7,38,38,4,34,38,33,46,38,42,0,34,53,28,34,0,0,34,7,7,0,0,38,34,46,7,36,34,7,7,23,34,0,34,4,0,46,36,0,33,0,6,0,40,25,40,0,0,0,7,7,42,34,0,40,38,34,38,0,34,7,0,0,0,0,0,0,0,0,34,0,34,0,0,0,3,24,40,34,42,0,7,28,38,0,0,0,0,7,4,0,41,0,0,4,0,0,0,0,0,7,0,7,7,6,37,0,7,0,7,34,7,51,0,42,0,0,0,0,0,0,0,0,28,4,7,4,0,0,0,0,0,0,0,0,7,0,7,0,0,0,0,4,0,0,0,0,0,0,0,0,0,0,0,0,0,0,0,0],"split_type":[0,0,0,0,0,0,0,0,0,0,0,0,0,0,0,0,0,0,0,0,0,0,0,0,0,0,0,0,0,0,0,0,0,0,0,0,0,0,0,0,0,0,0,0,0,0,0,0,0,0,0,0,0,0,0,0,0,0,0,0,0,0,0,0,0,0,0,0,0,0,0,0,0,0,0,0,0,0,0,0,0,0,0,0,0,0,0,0,0,0,0,0,0,0,0,0,0,0,0,0,0,0,0,0,0,0,0,0,0,0,0,0,0,0,0,0,0,0,0,0,0,0,0,0,0,0,0,0,0,0,0,0,0,0,0,0,0,0,0,0,0,0,0,0,0,0,0,0,0,0,0,0,0,0,0,0,0,0,0,0,0],"sum_hessian":[4.5013E4,4.2863E4,2.15E3,4.1312E4,1.551E3,9.24E2,1.226E3,4.1299E4,1.3E1,1.438E3,1.13E2,9.09E2,1.5E1,3.39E2,8.87E2,4.0951E4,3.48E2,7E0,6E0,9.42E2,4.96E2,1.06E2,7E0,1.42E2,7.67E2,1.74E2,1.65E2,8.36E2,5.1E1,3.846E4,2.491E3,3.01E2,4.7E1,9.36E2,6E0,4.09E2,8.7E1,3.8E1,6.8E1,7.58E2,9E0,1.17E2,5.7E1,1.54E2,1.1E1,6.09E2,2.27E2,1.8E1,3.3E1,3.8452E4,8E0,3.9E2,2.101E3,3.3E1,2.68E2,1.9E1,2.8E1,1.5E1,9.21E2,3.95E2,1.4E1,4.1E1,4.6E1,1.1E1,5.7E1,1.71E2,5.87E2,1.1E2,7E0,1.48E2,6E0,5.85E2,2.4E1,1.56E2,7.1E1,1.2E1,6E0,7.9E1,3.11E2,1.15E3,9.51E2,2.5E1,8E0,2.15E2,5.3E1,2.1E1,7E0,7E0,8E0,4.27E2,4.94E2,1.93E2,2.02E2,1.7E1,2.4E1,2.4E1,2.2E1,2.2E2,3.65E2,5.3E1,1.03E2,1.5E1,6.4E1,1.47E2,1.64E2,1.138E3,1.2E1,9.43E2,8E0,1.4E1,1.1E1,6.3E1,1.52E2,1.4E1,3.9E1,6E0,1.5E1,9.8E1,3.96E2,1.1E1,1.82E2,1E1,7E0,1.1E1,1.1E1,3.1E1,3.3E1,5.1E1,1.13E2,3.2E2,8.18E2,6E0,6E0,7.84E2,1.59E2,7E0,7E0,2.7E1,3.6E1,1.44E2,8E0,8E0,6E0,7E0,3.2E1,7E0,8E0,2E1,1.1E1,2.3E1,1E1,1.2E1,3.9E1,1.07E2,6E0,7E0,2E1,7.1E1,7.3E1,1.7E1,1.5E1],"tree_param":{"num_deleted":"0","num_feature":"54","num_nodes":"161","size_leaf_vector":"1"}},{"base_weights":[-2.418281E-3,-1.1053578E-1,2.203378E0,-1.279996E-1,3.4257743E-1,2.629994E0,1.8723145E0,-1.2835516E-1,9.085744E-2,2.9987794E-1,8.2177365E-1,2.5055594E0,3.2370932E0,1.4181923E0,2.0651472E0,-1.2894535E-1,2.1621687E-2,2.4972819E-1,4.231444E-1,5.0519586E-2,8.473088E-1,3.0427818E0,2.4889674E0,3.1357849E0,4.6425134E-1,1.1776041E0,1.6130193E0,2.0085645E0,2.7781272E0,-1.0213964E-1,-1.3058868E-1,1.4507902E-1,-4.1918256E-3,2.154515E-1,2.7829063E-1,4.4238764E-1,2.8613368E-1,7.9520917E-1,9.2211616E-1,2.9463446E-1,2.2540794E-1,2.0019244E-1,2.1464221E-1,2.628817E-1,3.2466248E-1,9.681873E-2,1.1348409E-1,1.548455E0,2.090457E-1,2.1130733E0,1.7573798E0,2.5711617E-1,2.3267374E0,-2.383573E-2,-1.1215416E-1,-1.3066606E-1,-8.189694E-2,1.4551256E-2,3.5071876E-3,2.8991895E-2,-3.7921384E-2,3.5752337E-2,2.2158808E-1,2.7585983E-1,4.0300872E-2,3.419645E-2,4.769539E-1,3.2204323E-2,2.4244444E-1,7.047765E-2,5.790078E-2,9.81955E-1,6.658234E-2,1.517824E0,1.971142E-1,2.0702488E0,1.9291463E-1,1.4276461E-1,1.5796207E-1,1.696449E-1,2.3188683E-1,4.3616887E-2,-4.3649275E-2,-9.528148E-2,-1.2103793E-1,-1.306908E-1,-6.547526E-3,1.6633885E-3,-1.06472105E-1,1.679388E-2,1.1890707E-2,-4.9281046E-2,1.9294386E-3,8.055925E-4,6.029976E-3,1.8195052E-2,2.005883E-2,1.2419773E-2,2.7710894E-1,4.012959E-2,5.4340918E-2,2.6625007E-2,1.7367426E-2,6.3928045E-2,8.8593654E-2,1.2420695E-1,1.3716577E-1,1.7510825E-1,2.126203E-1,-1.3541125E-2,8.4839255E-2,-2.051481E-2,-5.4148104E-2,-8.554877E-2,-8.6673945E-3,-9.718103E-3,-1.1175476E-2,-1.1143853E-2,-7.037841E-3,-5.959627E-3,-9.997872E-3,-2.1318435E-3,2.8999591E-2,-6.673038E-3,-3.323001E-2,2.5713407E-2,2.3136644E-2,2.3166517E-2,4.7340594E-2,-4.6273414E-3,-7.0530884E-3,-4.290999E-2,-5.3330655E-3,-8.728834E-3,-8.172256E-2,1.1704421E-2,4.303553E-2,-3.4620732E-3,-4.0644902E-4,2.520797E-4,6.592787E-3,5.9091265E-4,-1.1714665E-3,-5.4730535E-3,-3.3479873E-3,-6.016098E-3,-7.336863E-3,2.5381725E-3,-1.4854501E-3,7.9499534E-4,4.5742653E-3],"categories":[],"categories_nodes":[],"categories_segments":[],"categories_sizes":[],"default_left":[0,0,0,0,0,0,0,0,0,0,0,0,0,0,0,0,0,0,0,0,0,0,0,0,0,0,0,0,0,0,0,0,0,0,0,0,0,0,0,0,0,0,0,0,0,0,0,0,0,0,0,0,0,0,0,0,0,0,0,0,0,0,0,0,0,0,0,0,0,0,0,0,0,0,0,0,0,0,0,0,0,0,0,0,0,0,0,0,0,0,0,0,0,0,0,0,0,0,0,0,0,0,0,0,0,0,0,0,0,0,0,0,0,0,0,0,0,0,0,0,0,0,0,0,0,0,0,0,0,0,0,0,0,0,0,0,0,0,0,0,0,0,0,0,0,0,0,0,0,0,0],"id":5,"left_children":[1,3,5,7,9,11,13,15,-1,17,19,21,23,25,27,29,31,33,35,-1,37,39,41,43,-1,45,47,49,51,53,55,57,59,61,63,65,67,69,71,-1,-1,-1,-1,-1,-1,-1,-1,73,-1,75,77,-1,79,81,83,85,87,-1,-1,89,91,93,95,97,-1,-1,99,-1,101,-1,-1,103,-1,105,-1,107,-1,-1,-1,-1,-1,109,111,113,115,117,-1,-1,119,121,-1,123,-1,-1,-1,-1,-1,-1,125,-1,-1,-1,-1,-1,-1,-1,-1,-1,-1,-1,127,129,131,133,-1,-1,-1,-1,-1,-1,-1,-1,135,-1,137,-1,-1,-1,139,-1,141,143,-1,-1,145,147,149,-1,-1,-1,-1,-1,-1,-1,-1,-1,-1,-1,-1,-1,-1],"loss_changes":[1.076101E4,3.40383E2,2.9593652E2,1.7588745E1,3.2537125E1,6.6561035E1,1.029375E2,3.670044E0,0E0,9.003113E0,5.3804016E-1,4.0463867E0,2.8637573E1,1.5906128E1,3.1546875E1,1.8034058E0,5.2293587E-1,9.8230743E-1,1.0454712E0,0E0,1.3959503E-1,1.8971252E-1,8.017578E-1,1.0367432E0,0E0,4.2858887E-1,9.140564E0,1.8895752E1,3.8884277E0,1.8644314E0,1.3458252E-1,6.49063E-2,1.5107457E-1,5.127697E-1,1.9535065E-1,4.3055725E-1,1.5872431E-1,1.2508392E-2,5.614853E-2,0E0,0E0,0E0,0E0,0E0,0E0,0E0,0E0,2.9295654E0,0E0,1.7346191E0,6.279297E-1,0E0,9.4670105E-1,3.6328316E-1,3.047619E-1,4.034424E-2,1.6186744E-1,0E0,0E0,8.398096E-2,4.7713056E-2,1.1742469E-2,1.7400742E-2,6.1481476E-2,0E0,0E0,5.727005E-2,0E0,5.9798002E-2,0E0,0E0,7.028198E-2,0E0,6.8481445E-2,0E0,1.0744629E0,0E0,0E0,0E0,0E0,0E0,5.1359904E-1,4.7861695E-2,3.5345078E-2,8.349419E-2,8.239746E-3,0E0,0E0,1.0337532E-2,3.1690948E-2,0E0,2.1538466E-2,0E0,0E0,0E0,0E0,0E0,0E0,2.8549194E-2,0E0,0E0,0E0,0E0,0E0,0E0,0E0,0E0,0E0,0E0,0E0,3.4321547E-1,2.8130058E-2,8.598387E-3,9.091139E-3,0E0,0E0,0E0,0E0,0E0,0E0,0E0,0E0,9.474125E-3,0E0,6.250363E-3,0E0,0E0,0E0,5.4532208E-2,0E0,4.905451E-3,1.84834E-4,0E0,0E0,3.7224293E-3,1.2926886E-2,6.493114E-3,0E0,0E0,0E0,0E0,0E0,0E0,0E0,0E0,0E0,0E0,0E0,0E0,0E0,0E0],"parents":[2147483647,0,0,1,1,2,2,3,3,4,4,5,5,6,6,7,7,9,9,10,10,11,11,12,12,13,13,14,14,15,15,16,16,17,17,18,18,20,20,21,21,22,22,23,23,25,25,26,26,27,27,28,28,29,29,30,30,31,31,32,32,33,33,34,34,35,35,36,36,37,37,38,38,47,47,49,49,50,50,52,52,53,53,54,54,55,55,56,56,59,59,60,60,61,61,62,62,63,63,66,66,68,68,71,71,73,73,75,75,81,81,82,82,83,83,84,84,85,85,88,88,89,89,91,91,98,98,110,110,111,111,112,112,113,113,122,122,124,124,128,128,130,130,131,131,134,134,135,135,136,136],"right_children":[2,4,6,8,10,12,14,16,-1,18,20,22,24,26,28,30,32,34,36,-1,38,40,42,44,-1,46,48,50,52,54,56,58,60,62,64,66,68,70,72,-1,-1,-1,-1,-1,-1,-1,-1,74,-1,76,78,-1,80,82,84,86,88,-1,-1,90,92,94,96,98,-1,-1,100,-1,102,-1,-1,104,-1,106,-1,108,-1,-1,-1,-1,-1,110,112,114,116,118,-1,-1,120,122,-1,124,-1,-1,-1,-1,-1,-1,126,-1,-1,-1,-1,-1,-1,-1,-1,-1,-1,-1,128,130,132,134,-1,-1,-1,-1,-1,-1,-1,-1,136,-1,138,-1,-1,-1,140,-1,142,144,-1,-1,146,148,150,-1,-1,-1,-1,-1,-1,-1,-1,-1,-1,-1,-1,-1,-1],"split_conditions":[3.0104952E6,2.0128011E5,-4.7065482E-1,3.3921694E5,1.158994E6,2.1400661E0,1.0140433E7,4E0,9.085744E-2,1.8718021E0,5.9E1,-4.70655E-1,9.5E1,6.83843E6,2.6390574E0,-1.0816326E0,1.2989679E2,2.9440116E5,-4.706329E-1,5.0519586E-2,2.037328E6,-1.123E2,5.1786156E7,2.1E1,4.6425134E-1,5.915202E6,5.794E3,-4.706544E-1,-4.7065315E-1,-4.7061718E-1,4.6E1,-4.7058985E-1,-4.7056052E-1,1.3862944E0,8.05E2,2.859471E5,1.5103658E0,1.6275948E0,6.05E2,2.9463446E-1,2.2540794E-1,2.0019244E-1,2.1464221E-1,2.628817E-1,3.2466248E-1,9.681873E-2,1.1348409E-1,3.2580965E0,2.090457E-1,3.2859982E7,1.6742234E7,2.5711617E-1,4.0943446E0,-4.7064024E-1,-4.7055125E-1,2.5185824E4,-4.7062534E-1,1.4551256E-2,3.5071876E-3,1.4E1,2.2512918E0,1E0,2.67308E5,1E0,4.0300872E-2,3.419645E-2,-1.5833333E0,3.2204323E-2,-4.7062534E-1,7.047765E-2,5.790078E-2,-4.7065315E-1,6.658234E-2,1.9459102E0,1.971142E-1,2.014903E0,1.9291463E-1,1.4276461E-1,1.5796207E-1,1.696449E-1,2.3188683E-1,2E0,-4.706329E-1,-4.7058985E-1,-4.7046342E-1,2.7780057E4,-6.547526E-3,1.6633885E-3,-1.0136337E0,6E0,1.1890707E-2,4.091883E4,1.9294386E-3,8.055925E-4,6.029976E-3,1.8195052E-2,2.005883E-2,1.2419773E-2,-4.706407E-1,4.012959E-2,5.4340918E-2,2.6625007E-2,1.7367426E-2,6.3928045E-2,8.8593654E-2,1.2420695E-1,1.3716577E-1,1.7510825E-1,2.126203E-1,-1.3541125E-2,-4.70649E-1,1E0,-4.7062534E-1,1E0,-8.6673945E-3,-9.718103E-3,-1.1175476E-2,-1.1143853E-2,-7.037841E-3,-5.959627E-3,-9.997872E-3,-2.1318435E-3,1.609438E0,-6.673038E-3,9.5378164E4,2.5713407E-2,2.3136644E-2,2.3166517E-2,1E0,-4.6273414E-3,-4.706369E-1,1E0,-5.3330655E-3,-8.728834E-3,-4.706089E-1,-4.706089E-1,8.821487E0,-3.4620732E-3,-4.0644902E-4,2.520797E-4,6.592787E-3,5.9091265E-4,-1.1714665E-3,-5.4730535E-3,-3.3479873E-3,-6.016098E-3,-7.336863E-3,2.5381725E-3,-1.4854501E-3,7.9499534E-4,4.5742653E-3],"split_indices":[34,34,7,37,34,48,34,5,0,48,1,7,6,34,48,42,26,34,7,0,34,25,34,6,0,34,1,7,7,7,27,7,7,48,1,34,43,43,23,0,0,0,0,0,0,0,0,48,0,34,34,0,48,7,7,34,7,0,0,5,48,14,34,6,0,0,42,0,7,0,0,7,0,48,0,48,0,0,0,0,0,3,7,7,7,37,0,0,42,5,0,34,0,0,0,0,0,0,7,0,0,0,0,0,0,0,0,0,0,0,7,5,7,5,0,0,0,0,0,0,0,0,48,0,34,0,0,0,5,0,7,5,0,0,7,7,37,0,0,0,0,0,0,0,0,0,0,0,0,0,0],"split_type":[0,0,0,0,0,0,0,0,0,0,0,0,0,0,0,0,0,0,0,0,0,0,0,0,0,0,0,0,0,0,0,0,0,0,0,0,0,0,0,0,0,0,0,0,0,0,0,0,0,0,0,0,0,0,0,0,0,0,0,0,0,0,0,0,0,0,0,0,0,0,0,0,0,0,0,0,0,0,0,0,0,0,0,0,0,0,0,0,0,0,0,0,0,0,0,0,0,0,0,0,0,0,0,0,0,0,0,0,0,0,0,0,0,0,0,0,0,0,0,0,0,0,0,0,0,0,0,0,0,0,0,0,0,0,0,0,0,0,0,0,0,0,0,0,0,0,0,0,0,0,0],"sum_hessian":[4.5122E4,4.3014E4,2.108E3,4.1418E4,1.596E3,9.2E2,1.188E3,4.1406E4,1.2E1,1.466E3,1.3E2,7.65E2,1.55E2,3.55E2,8.33E2,4.1244E4,1.62E2,1.043E3,4.23E2,1.4E1,1.16E2,2.1E1,7.44E2,1.49E2,6E0,1.6E2,1.95E2,7.73E2,6E1,2.385E3,3.8859E4,2.8E1,1.34E2,4.76E2,5.67E2,3.7E2,5.3E1,7.1E1,4.5E1,9E0,1.2E1,1.3E2,6.14E2,1.4E2,9E0,1.28E2,3.2E1,1.82E2,1.3E1,5.44E2,2.29E2,3.8E1,2.2E1,2.71E2,2.114E3,3.8796E4,6.3E1,2.2E1,6E0,6.7E1,6.7E1,1.6E1,4.6E2,5.61E2,6E0,1.71E2,1.99E2,1.6E1,3.7E1,5.4E1,1.7E1,3E1,1.5E1,1.76E2,6E0,4.27E2,1.17E2,1.26E2,1.03E2,1.3E1,9E0,6.1E1,2.1E2,7.32E2,1.382E3,3.8777E4,1.9E1,1.2E1,5.1E1,6.1E1,6E0,5.7E1,1E1,1E1,6E0,2.93E2,1.67E2,6E0,5.55E2,1.93E2,6E0,1.2E1,2.5E1,7E0,2.3E1,1.09E2,6.7E1,4.13E2,1.4E1,1E1,5.1E1,6.7E1,1.43E2,2.94E2,4.38E2,8.16E2,5.66E2,3.8767E4,1E1,1.3E1,3.8E1,1.3E1,4.8E1,1.9E1,3.8E1,1.01E2,4.54E2,8E0,4.3E1,1.8E1,4.9E1,6.4E1,7.9E1,5.1E1,2.43E2,2.3E1,2.5E1,2.9E1,9E0,1.8E1,2.5E1,1.4E1,3.5E1,7E0,5.7E1,7.2E1,1.71E2,1.5E1,8E0,7E0,1.8E1],"tree_param":{"num_deleted":"0","num_feature":"54","num_nodes":"151","size_leaf_vector":"1"}},{"base_weights":[-2.79841E-3,-1.01266555E-1,2.0165257E0,-1.17599614E-1,3.11749E-1,1.4567567E0,2.2250395E0,2.3424156E-1,-1.17848754E-1,2.7339652E-1,9.114164E-1,1.3762475E0,2.740849E0,2.1278727E0,2.939217E0,9.1032974E-2,-4.1399978E-2,-1.1869028E-1,-7.1687594E-2,2.639702E-1,9.7206384E-1,7.32009E-1,1.5853946E0,6.713465E-1,1.4494706E0,1.9107334E-1,2.610281E-1,1.9299562E0,2.309469E0,2.794186E0,4.1825457E0,-7.556872E-3,-8.7757007E-4,-1.1878398E-1,5.194991E-2,-8.666676E-2,-3.3409245E-2,3.8334495E-1,2.2109275E-1,1.746478E-1,3.5236877E-1,6.206223E-1,8.827727E-1,1.1279606E-1,1.7806046E-1,3.613349E-1,7.9489726E-1,1.1891434E0,1.5887998E0,1.24001965E-1,1.953016E0,1.9521073E-1,2.906316E0,2.2256619E-1,2.4626867E-1,3.1118417E-1,4.2547768E-1,-1.1953995E-1,-1.03425436E-1,1.469876E-2,-3.6951437E-4,-7.899845E-3,-6.620046E-2,-4.88469E-2,-8.746041E-3,4.0892103E-1,8.604675E-2,1.0669503E-2,2.387685E-1,1.2814713E-2,4.3095145E-2,5.624936E-2,2.8358158E-2,6.126981E-2,8.599181E-2,3.7139915E-2,2.5044814E-2,5.8701366E-2,7.377476E-2,1.0969151E0,1.2867391E-1,1.5132695E0,1.8002503E0,1.5348855E-1,1.9806584E0,2.0461063E-1,2.7948976E-1,-1.0192889E-2,-4.907013E-3,-8.9587264E-2,-1.0604964E-1,-5.7741357E-3,-2.883312E-3,-5.7627605E-3,-3.5698153E-2,-3.1214043E-2,5.722094E-3,7.578532E-2,3.987133E-1,-1.197514E-2,2.4835615E-1,-1.1421271E-2,8.5508764E-2,2.3004732E-1,4.6208194E-1,8.523724E-2,1.0513567E-1,1.4288408E0,1.4261745E-1,1.4549008E-1,1.6910641E-1,1.6378498E-1,1.7640835E-1,-7.8831E-3,-6.0827243E-3,-1.14856414E-1,-1.01077154E-1,-1.5886517E-2,-4.140393E-2,-3.3831615E-3,-3.3516448E-4,-4.504469E-3,6.9369823E-3,4.0299693E-1,1.42984465E-2,-3.8582096E-3,2.1122664E-3,1.4877646E-2,2.5828365E-2,3.7021688E-3,-2.1908123E-2,2.1353432E-3,1.2937139E-2,2.0363699E-1,2.5337702E-1,2.7446812E-2,4.8331153E-2,1.03745565E-1,1.4548994E0,-6.328028E-3,-9.844795E-3,-7.565127E-2,-1.0326663E-1,-3.2568064E-3,2.2074184E-3,-4.7582828E-2,-1.8926318E-3,1.0538981E-2,-7.1611074E-3,3.6479823E-2,3.1939995E-2,-3.703111E-2,6.388445E-4,4.308642E-3,2.0617208E-1,2.068136E-2,2.2520203E-2,1.10014915E-1,1.2742977E-1,-2.7906268E-3,-8.838488E-3,-8.924303E-3,-7.295452E-3,-4.6136756E-3,-1.5740435E-3,-3.3314113E-4,3.274922E-3,-4.170838E-3,-1.5315718E-3,-8.579677E-4,1.4564635E-3,1.7190274E-2,2.2449644E-2],"categories":[],"categories_nodes":[],"categories_segments":[],"categories_sizes":[],"default_left":[0,0,0,0,0,0,0,0,0,0,0,0,0,0,0,0,0,0,0,0,0,0,0,0,0,0,0,0,0,0,0,0,0,0,0,0,0,0,0,0,0,0,0,0,0,0,0,0,0,0,0,0,0,0,0,0,0,0,0,0,0,0,0,0,0,0,0,0,0,0,0,0,0,0,0,0,0,0,0,0,0,0,0,0,0,0,0,0,0,0,0,0,0,0,0,0,0,0,0,0,0,0,0,0,0,0,0,0,0,0,0,0,0,0,0,0,0,0,0,0,0,0,0,0,0,0,0,0,0,0,0,0,0,0,0,0,0,0,0,0,0,0,0,0,0,0,0,0,0,0,0,0,0,0,0,0,0,0,0,0,0,0,0,0,0,0,0,0,0,0,0,0,0],"id":6,"left_children":[1,3,5,7,9,11,13,15,17,19,21,23,25,27,29,-1,31,33,35,37,39,41,43,45,47,-1,-1,49,51,53,55,-1,-1,57,59,61,63,65,67,-1,69,71,73,-1,-1,75,77,79,81,-1,83,-1,85,-1,-1,-1,-1,87,89,-1,-1,-1,91,93,95,97,99,101,103,-1,-1,-1,-1,-1,-1,-1,-1,-1,-1,105,-1,107,109,-1,111,-1,-1,-1,-1,113,115,-1,-1,-1,117,119,121,-1,123,125,127,129,131,133,135,-1,-1,137,-1,-1,-1,-1,-1,-1,-1,139,141,143,145,-1,-1,147,-1,149,-1,-1,-1,-1,-1,-1,151,-1,-1,153,155,-1,-1,-1,157,-1,-1,159,161,-1,-1,163,-1,165,-1,-1,-1,167,169,-1,171,-1,-1,-1,-1,-1,-1,-1,-1,-1,-1,-1,-1,-1,-1,-1,-1,-1,-1],"loss_changes":[8.986398E3,2.907044E2,2.440293E2,3.638733E0,3.757312E1,5.7631348E1,1.03885254E2,6.7941613E0,1.5991211E0,1.0017006E1,1.1409378E1,2.7375916E1,2.817627E0,4.678955E1,2.865625E1,0E0,2.8735444E-2,6.5509033E-1,4.2064953E-1,7.735176E0,1.3229427E1,1.0726547E0,1.6193657E0,1.8249912E0,1.6930603E1,0E0,0E0,6.0075684E0,5.8898926E0,8.251953E-2,1.3954468E0,0E0,0E0,4.593506E-1,1.5810502E-1,5.72114E-2,7.7741444E-2,3.020855E0,4.1565857E0,0E0,3.6183643E-1,4.0970612E-1,3.564701E-1,0E0,0E0,5.8321953E-3,1.112175E-2,4.3970337E0,4.003296E0,0E0,1.2519531E0,0E0,1.1373138E0,0E0,0E0,0E0,0E0,1.0375977E-2,5.875969E-2,0E0,0E0,0E0,1.4269948E-3,2.6867121E-2,2.7799442E-2,1.6402588E0,5.245336E-1,1.4755212E-1,1.950077E0,0E0,0E0,0E0,0E0,0E0,0E0,0E0,0E0,0E0,0E0,1.275589E0,0E0,2.2401733E0,1.1126709E-1,0E0,1.236084E0,0E0,0E0,0E0,0E0,7.713318E-3,5.8036804E-2,0E0,0E0,0E0,6.3326135E-3,5.9824735E-3,4.1222736E-2,0E0,3.1389236E-1,2.6032656E-2,1.3613403E-2,3.8228884E-2,7.340594E-2,5.783577E-1,4.673319E-1,0E0,0E0,1.6253662E-1,0E0,0E0,0E0,0E0,0E0,0E0,0E0,4.04644E-3,4.7883034E-2,1.8829802E-2,3.9016455E-3,0E0,0E0,5.492496E-2,0E0,1.658516E-1,0E0,0E0,0E0,0E0,0E0,0E0,2.0948462E-2,0E0,0E0,1.6883469E-1,2.0168304E-2,0E0,0E0,0E0,1.3745117E-1,0E0,0E0,9.504393E-2,1.3202667E-2,0E0,0E0,4.9412996E-3,0E0,1.5999127E-2,0E0,0E0,0E0,5.1590577E-3,4.2570997E-3,0E0,8.432007E-2,0E0,0E0,0E0,0E0,0E0,0E0,0E0,0E0,0E0,0E0,0E0,0E0,0E0,0E0,0E0,0E0,0E0,0E0],"parents":[2147483647,0,0,1,1,2,2,3,3,4,4,5,5,6,6,7,7,8,8,9,9,10,10,11,11,12,12,13,13,14,14,16,16,17,17,18,18,19,19,20,20,21,21,22,22,23,23,24,24,27,27,28,28,29,29,30,30,33,33,34,34,35,35,36,36,37,37,38,38,40,40,41,41,42,42,45,45,46,46,47,47,48,48,50,50,52,52,57,57,58,58,62,62,63,63,64,64,65,65,66,66,67,67,68,68,79,79,81,81,82,82,84,84,89,89,90,90,94,94,95,95,96,96,98,98,99,99,100,100,101,101,102,102,103,103,104,104,107,107,115,115,116,116,117,117,118,118,121,121,123,123,130,130,133,133,134,134,138,138,141,141,142,142,145,145,147,147,151,151,152,152,154,154],"right_children":[2,4,6,8,10,12,14,16,18,20,22,24,26,28,30,-1,32,34,36,38,40,42,44,46,48,-1,-1,50,52,54,56,-1,-1,58,60,62,64,66,68,-1,70,72,74,-1,-1,76,78,80,82,-1,84,-1,86,-1,-1,-1,-1,88,90,-1,-1,-1,92,94,96,98,100,102,104,-1,-1,-1,-1,-1,-1,-1,-1,-1,-1,106,-1,108,110,-1,112,-1,-1,-1,-1,114,116,-1,-1,-1,118,120,122,-1,124,126,128,130,132,134,136,-1,-1,138,-1,-1,-1,-1,-1,-1,-1,140,142,144,146,-1,-1,148,-1,150,-1,-1,-1,-1,-1,-1,152,-1,-1,154,156,-1,-1,-1,158,-1,-1,160,162,-1,-1,164,-1,166,-1,-1,-1,168,170,-1,172,-1,-1,-1,-1,-1,-1,-1,-1,-1,-1,-1,-1,-1,-1,-1,-1,-1,-1],"split_conditions":[4.3048988E5,9E0,2.62711E6,-1.22529104E-1,1.8595881E5,3.8E1,2.7E1,-2.2190442E0,3.1202078E4,6.5E1,2.3E1,5E0,6.9E1,5.670824E6,6.4E1,9.1032974E-2,7.546808E4,1.0347901E5,6.791997E4,-1.7427971E0,8.974583E2,1.4E1,5.5E1,2E0,1.052554E6,1.9107334E-1,2.610281E-1,5E0,9.462052E6,8E0,1.95E2,-7.556872E-3,-8.7757007E-4,4.776923E1,1.0061264E3,4.6E1,1.1565304E5,4E0,4.4364215E4,1.746478E-1,1.625388E4,-8.235294E-1,2.2071088E5,1.1279606E-1,1.7806046E-1,1E0,1.5515121E6,2.8E1,1E1,1.24001965E-1,3.439252E6,1.9521073E-1,7.009506E1,2.2256619E-1,2.4626867E-1,3.1118417E-1,4.2547768E-1,3.2950164E4,4.3153763E1,1.469876E-2,-3.6951437E-4,-7.899845E-3,1.51E2,4.8E1,5.2E1,0E0,2.2300959E4,3.0934096E4,1.3E1,1.2814713E-2,4.3095145E-2,5.624936E-2,2.8358158E-2,6.126981E-2,8.599181E-2,3.7139915E-2,2.5044814E-2,5.8701366E-2,7.377476E-2,7.386097E5,1.2867391E-1,2.047879E6,1.7681574E6,1.5348855E-1,9E0,2.0461063E-1,2.7948976E-1,-1.0192889E-2,-4.907013E-3,5.9E1,2.760887E2,-5.7741357E-3,-2.883312E-3,-5.7627605E-3,7.2E1,2.0317697E5,-1.323077E0,7.578532E-2,8.702278E1,1.1544299E4,6.678043E4,1.4410115E2,1.1E1,1.2844217E5,1.1169979E5,8.523724E-2,1.0513567E-1,8E0,1.4261745E-1,1.4549008E-1,1.6910641E-1,1.6378498E-1,1.7640835E-1,-7.8831E-3,-6.0827243E-3,4.3E1,1.4066696E1,1.22E2,1.0367203E5,-3.3831615E-3,-3.3516448E-4,3.3921694E5,6.9369823E-3,1.357E3,1.42984465E-2,-3.8582096E-3,2.1122664E-3,1.4877646E-2,2.5828365E-2,3.7021688E-3,1.999455E4,2.1353432E-3,1.2937139E-2,6E0,1.4722684E5,2.7446812E-2,4.8331153E-2,1.03745565E-1,1.274846E6,-6.328028E-3,-9.844795E-3,7.691383E2,4.326606E4,-3.2568064E-3,2.2074184E-3,1.37E2,-1.8926318E-3,2.0317697E5,-7.1611074E-3,3.6479823E-2,3.1939995E-2,3.8E2,1E1,4.308642E-3,1.7917595E0,2.068136E-2,2.2520203E-2,1.10014915E-1,1.2742977E-1,-2.7906268E-3,-8.838488E-3,-8.924303E-3,-7.295452E-3,-4.6136756E-3,-1.5740435E-3,-3.3314113E-4,3.274922E-3,-4.170838E-3,-1.5315718E-3,-8.579677E-4,1.4564635E-3,1.7190274E-2,2.2449644E-2],"split_indices":[36,40,36,41,36,4,40,32,37,40,5,4,4,36,4,0,36,36,37,42,29,4,4,4,36,0,0,4,36,17,4,0,0,29,33,27,37,17,36,0,36,45,36,0,0,2,36,40,5,0,36,0,37,0,0,0,0,36,37,0,0,0,27,27,27,16,36,36,4,0,0,0,0,0,0,0,0,0,0,36,0,36,36,0,4,0,0,0,0,1,37,0,0,0,27,37,42,0,37,36,36,26,4,36,36,0,0,4,0,0,0,0,0,0,0,27,33,28,37,0,0,37,0,28,0,0,0,0,0,0,36,0,0,4,36,0,0,0,36,0,0,37,33,0,0,27,0,37,0,0,0,9,4,0,51,0,0,0,0,0,0,0,0,0,0,0,0,0,0,0,0,0,0],"split_type":[0,0,0,0,0,0,0,0,0,0,0,0,0,0,0,0,0,0,0,0,0,0,0,0,0,0,0,0,0,0,0,0,0,0,0,0,0,0,0,0,0,0,0,0,0,0,0,0,0,0,0,0,0,0,0,0,0,0,0,0,0,0,0,0,0,0,0,0,0,0,0,0,0,0,0,0,0,0,0,0,0,0,0,0,0,0,0,0,0,0,0,0,0,0,0,0,0,0,0,0,0,0,0,0,0,0,0,0,0,0,0,0,0,0,0,0,0,0,0,0,0,0,0,0,0,0,0,0,0,0,0,0,0,0,0,0,0,0,0,0,0,0,0,0,0,0,0,0,0,0,0,0,0,0,0,0,0,0,0,0,0,0,0,0,0,0,0,0,0,0,0,0,0],"sum_hessian":[4.5194E4,4.3093E4,2.101E3,4.1454E4,1.639E3,5.71E2,1.53E3,2.9E1,4.1425E4,1.541E3,9.8E1,5.38E2,3.3E1,1.348E3,1.82E2,7E0,2.2E1,4.0682E4,7.43E2,1.521E3,2E1,7.8E1,2E1,5.1E1,4.87E2,1.4E1,1.9E1,6.47E2,7.01E2,1.64E2,1.8E1,8E0,1.4E1,4.066E4,2.2E1,5.33E2,2.1E2,4.01E2,1.12E3,7E0,1.3E1,4.6E1,3.2E1,1.4E1,6E0,1.5E1,3.6E1,1.71E2,3.16E2,3.1E1,6.16E2,6.8E2,2.1E1,5.9E1,1.05E2,1.2E1,6E0,3.8748E4,1.912E3,7E0,1.5E1,4.1E2,1.23E2,1.28E2,8.2E1,3.69E2,3.2E1,8.7E1,1.033E3,6E0,7E0,4E1,6E0,1.5E1,1.7E1,6E0,9E0,1.6E1,2E1,1.34E2,3.7E1,2.35E2,8.1E1,9.8E1,5.18E2,1E1,1.1E1,3.8742E4,6E0,3.09E2,1.603E3,1.16E2,7E0,5.1E1,7.7E1,3.3E1,4.9E1,7E0,3.62E2,2E1,1.2E1,6.7E1,2E1,9.95E2,3.8E1,8E1,5.4E1,1.56E2,7.9E1,5.6E1,2.5E1,3.14E2,2.04E2,2.64E2,4.5E1,5.73E2,1.03E3,1.9E1,5.8E1,2.4E1,9E0,4.3E1,6E0,3.55E2,7E0,1.1E1,9E0,6E0,6E0,1E1,5.7E1,1.1E1,9E0,4.69E2,5.26E2,1.7E1,2.1E1,1.9E1,1.37E2,1E1,5.63E2,8.4E1,9.46E2,1.3E1,6E0,4.2E1,1.6E1,3.6E1,7E0,1.86E2,1.69E2,3.5E1,2.2E1,8E0,4.61E2,2.68E2,2.58E2,2.9E1,1.08E2,3.4E1,5E1,8.73E2,7.3E1,3.3E1,9E0,2.3E1,1.3E1,2E1,1.5E1,1.2E1,1E1,4.29E2,3.2E1],"tree_param":{"num_deleted":"0","num_feature":"54","num_nodes":"173","size_leaf_vector":"1"}},{"base_weights":[2.3246314E-3,-9.1227315E-2,1.8622557E0,-1.07267015E-1,3.1065634E-1,1.5057749E0,2.1932526E0,1.9738726E-1,-1.0769138E-1,2.5598562E-1,3.0016133E-1,1.1592052E0,1.6714547E0,2.0972703E0,2.940215E0,9.4722286E-2,-2.7385904E-3,-1.0922181E-1,-8.311597E-2,2.5397825E-1,7.253905E-1,9.914126E-1,1.2574742E0,1.3129422E-1,1.4879884E-1,2.0667367E0,2.0571832E-1,2.8276484E0,3.947537E-1,-3.110237E-2,1.530279E-2,-1.0927365E-1,2.1629581E-2,-2.5244493E-2,-9.064843E-2,2.0567955E-1,3.734102E-1,6.34357E-1,6.91215E-2,7.75728E-2,8.8847265E-2,1.0234637E-1,1.1549944E-1,1.6584226E-1,1.7967345E-1,2.320768E-1,2.862716E-1,-4.2444784E-3,-1.3680332E-3,2.2066603E-3,4.656695E-3,-9.32217E-3,-7.595419E-2,3.140565E-3,2.380366E-4,4.597843E-3,-3.7846204E-2,-9.382147E-2,-2.8744969E-3,1.7617479E-1,2.3324819E-1,3.6711094E-1,5.4279555E-2,5.2596718E-2,6.792033E-2,1.1485243E-3,-1.0805724E-3,2.873125E-3,-9.3767814E-2,1.9578023E-2,-1.0620153E-2,-2.1832706E-2,-4.4676665E-2,-7.7599265E-2,-1.00686006E-1,-3.2137744E-2,1.810288E-2,7.902811E-2,1.8209468E-1,1.9478261E-2,2.1728955E-2,3.2692266E-1,3.939687E-1,-4.3469863E-3,-8.579147E-3,1.5730267E-2,9.401148E-4,-3.9703962E-3,-1.2661995E-2,-5.335816E-3,-4.1628644E-2,-6.7481264E-2,-6.9519696E-3,-8.082713E-3,-9.466459E-3,-1.7952908E-2,-4.1800006E-3,5.818682E-3,2.7846645E-3,4.426134E-3,7.807341E-3,1.682482E-1,1.6210197E-2,1.948304E-2,2.8121948E-2,3.234265E-2,3.6303394E-2,1.8391304E-2,-5.1577438E-2,-4.5937095E-3,-1.3627304E-3,-2.826394E-3,-4.164262E-3,-7.182574E-3,-5.362245E-3,-2.5020207E-3,-0E0,-8.659722E-4,1.6402812E-3,1.4680429E-2,1.1590542E-2,-1.01506215E-4,6.571114E-3,-1.1383018E-2,-0E0,-0E0,-6.0334895E-4,-7.370999E-4,1.2254504E-4],"categories":[],"categories_nodes":[],"categories_segments":[],"categories_sizes":[],"default_left":[0,0,0,0,0,0,0,0,0,0,0,0,0,0,0,0,0,0,0,0,0,0,0,0,0,0,0,0,0,0,0,0,0,0,0,0,0,0,0,0,0,0,0,0,0,0,0,0,0,0,0,0,0,0,0,0,0,0,0,0,0,0,0,0,0,0,0,0,0,0,0,0,0,0,0,0,0,0,0,0,0,0,0,0,0,0,0,0,0,0,0,0,0,0,0,0,0,0,0,0,0,0,0,0,0,0,0,0,0,0,0,0,0,0,0,0,0,0,0,0,0,0,0,0,0,0,0,0,0],"id":7,"left_children":[1,3,5,7,9,11,13,15,17,-1,19,21,23,25,27,-1,29,31,33,35,37,39,41,-1,-1,43,-1,45,-1,47,49,51,53,55,57,59,61,63,-1,-1,-1,-1,-1,-1,-1,-1,-1,-1,-1,65,-1,-1,67,-1,-1,69,71,73,75,77,79,81,-1,-1,-1,-1,-1,-1,83,85,-1,87,89,91,93,95,97,99,101,-1,-1,103,105,-1,-1,-1,107,-1,109,-1,111,113,-1,-1,-1,115,-1,117,-1,-1,-1,119,-1,-1,-1,-1,-1,121,123,125,-1,-1,-1,-1,-1,-1,-1,127,-1,-1,-1,-1,-1,-1,-1,-1,-1,-1,-1],"loss_changes":[7.834716E3,2.7634967E2,2.5317578E2,5.3335266E0,4.60484E1,5.8914307E1,7.7828125E1,1.0526491E1,1.5379944E0,0E0,3.2094208E1,5.0543823E0,5.7784424E0,7.6914062E0,1.93125E1,0E0,2.4988486E-2,2.6705933E-1,1.0481186E0,8.485321E0,1.0158615E0,1.2651062E-1,5.244446E-1,0E0,0E0,2.9309082E0,0E0,3.3591309E0,0E0,2.655767E-3,1.2380244E-2,7.0251465E-2,2.845772E-3,1.0637753E-1,5.914898E-1,8.2806015E-1,5.8778E-1,4.5757294E-3,0E0,0E0,0E0,0E0,0E0,0E0,0E0,0E0,0E0,0E0,0E0,3.8323826E-3,0E0,0E0,1.4856836E-1,0E0,0E0,1.5612637E-1,1.871553E-2,2.202053E-1,4.6980575E-2,2.7922916E-1,1.8127441E-2,3.7825394E-1,0E0,0E0,0E0,0E0,0E0,0E0,1.134032E-2,2.2135544E-1,0E0,1.1452818E-2,2.5802553E-3,1.7002583E-2,7.664299E-2,4.8917644E-3,6.216706E-3,3.229946E-3,2.89917E-2,0E0,0E0,1.6231537E-3,2.9758453E-2,0E0,0E0,0E0,6.0769662E-2,0E0,4.31214E-4,0E0,3.6197007E-3,6.231129E-3,0E0,0E0,0E0,3.5311123E-3,0E0,2.9799915E-3,0E0,0E0,0E0,3.3502579E-3,0E0,0E0,0E0,0E0,0E0,6.191746E-2,6.951447E-2,2.0190649E-4,0E0,0E0,0E0,0E0,0E0,0E0,0E0,5.54196E-4,0E0,0E0,0E0,0E0,0E0,0E0,0E0,0E0,0E0,0E0,0E0],"parents":[2147483647,0,0,1,1,2,2,3,3,4,4,5,5,6,6,7,7,8,8,10,10,11,11,12,12,13,13,14,14,16,16,17,17,18,18,19,19,20,20,21,21,22,22,25,25,27,27,29,29,30,30,31,31,32,32,33,33,34,34,35,35,36,36,37,37,49,49,52,52,55,55,56,56,57,57,58,58,59,59,60,60,61,61,68,68,69,69,71,71,72,72,73,73,74,74,75,75,76,76,77,77,78,78,81,81,82,82,86,86,88,88,90,90,91,91,95,95,97,97,101,101,107,107,108,108,109,109,117,117],"right_children":[2,4,6,8,10,12,14,16,18,-1,20,22,24,26,28,-1,30,32,34,36,38,40,42,-1,-1,44,-1,46,-1,48,50,52,54,56,58,60,62,64,-1,-1,-1,-1,-1,-1,-1,-1,-1,-1,-1,66,-1,-1,68,-1,-1,70,72,74,76,78,80,82,-1,-1,-1,-1,-1,-1,84,86,-1,88,90,92,94,96,98,100,102,-1,-1,104,106,-1,-1,-1,108,-1,110,-1,112,114,-1,-1,-1,116,-1,118,-1,-1,-1,120,-1,-1,-1,-1,-1,122,124,126,-1,-1,-1,-1,-1,-1,-1,128,-1,-1,-1,-1,-1,-1,-1,-1,-1,-1,-1],"split_conditions":[5.653533E6,3.6632706E5,3.6400084E7,-1.22529104E-1,-4.706546E-1,1.6096445E7,1.7021107E8,-4.706517E-1,6.4E1,2.5598562E-1,2.115723E6,9.696921E6,2.6027324E7,8.5139256E7,1.96E2,9.4722286E-2,1.729679E5,1.4147402E5,-4.7061718E-1,1.0823E6,3.397524E6,6.149283E6,1.2957246E7,1.3129422E-1,1.4879884E-1,5.297897E7,2.0571832E-1,2.8205347E8,3.947537E-1,1.4147402E5,2.928071E5,4.6E1,-7E1,-4.7063828E-1,1.5040774E0,8.111892E5,3.3333302E-1,2.3025851E0,6.91215E-2,7.75728E-2,8.8847265E-2,1.0234637E-1,1.1549944E-1,1.6584226E-1,1.7967345E-1,2.320768E-1,2.862716E-1,-4.2444784E-3,-1.3680332E-3,1.5240066E1,4.656695E-3,-9.32217E-3,-4.706407E-1,3.140565E-3,2.380366E-4,2.4E2,-4.706329E-1,-4.7056052E-1,2.0181798E5,6.067319E5,9.325402E5,1.3539681E6,5.4279555E-2,5.2596718E-2,6.792033E-2,1.1485243E-3,-1.0805724E-3,2.873125E-3,-4.7061718E-1,-4.70649E-1,-1.0620153E-2,1E0,1E0,-4.706001E-1,-4.7046342E-1,2E1,2.928071E5,9E0,7.21194E5,1.9478261E-2,2.1728955E-2,-7.7E1,1.573864E6,-4.3469863E-3,-8.579147E-3,1.5730267E-2,1.27E2,-3.9703962E-3,-4.706353E-1,-5.335816E-3,-4.7062534E-1,1E0,-6.9519696E-3,-8.082713E-3,-9.466459E-3,1.729679E5,-4.1800006E-3,7E0,2.7846645E-3,4.426134E-3,7.807341E-3,4E0,1.6210197E-2,1.948304E-2,2.8121948E-2,3.234265E-2,3.6303394E-2,-2.8E1,1.33E2,5.6E1,-1.3627304E-3,-2.826394E-3,-4.164262E-3,-7.182574E-3,-5.362245E-3,-2.5020207E-3,-0E0,2.4652195E5,1.6402812E-3,1.4680429E-2,1.1590542E-2,-1.01506215E-4,6.571114E-3,-1.1383018E-2,-0E0,-0E0,-6.0334895E-4,-7.370999E-4,1.2254504E-4],"split_indices":[35,35,35,41,7,35,35,7,28,0,35,35,35,35,4,0,35,35,7,35,35,35,35,0,0,35,0,35,0,35,35,27,23,7,49,35,8,49,0,0,0,0,0,0,0,0,0,0,0,32,0,0,7,0,0,28,7,7,35,35,35,35,0,0,0,0,0,0,7,7,0,4,4,7,7,40,35,4,35,0,0,25,35,0,0,0,27,0,7,0,7,4,0,0,0,35,0,6,0,0,0,3,0,0,0,0,0,24,27,27,0,0,0,0,0,0,0,35,0,0,0,0,0,0,0,0,0,0,0],"split_type":[0,0,0,0,0,0,0,0,0,0,0,0,0,0,0,0,0,0,0,0,0,0,0,0,0,0,0,0,0,0,0,0,0,0,0,0,0,0,0,0,0,0,0,0,0,0,0,0,0,0,0,0,0,0,0,0,0,0,0,0,0,0,0,0,0,0,0,0,0,0,0,0,0,0,0,0,0,0,0,0,0,0,0,0,0,0,0,0,0,0,0,0,0,0,0,0,0,0,0,0,0,0,0,0,0,0,0,0,0,0,0,0,0,0,0,0,0,0,0,0,0,0,0,0,0,0,0,0,0],"sum_hessian":[4.5026E4,4.287E4,2.156E3,4.1225E4,1.645E3,1.039E3,1.117E3,5.7E1,4.1168E4,6E0,1.639E3,3.37E2,7.02E2,9.91E2,1.26E2,1E1,4.7E1,3.8752E4,2.416E3,1.479E3,1.6E2,1.26E2,2.11E2,2.55E2,4.47E2,9.06E2,8.5E1,1.19E2,7E0,1.9E1,2.8E1,3.8737E4,1.5E1,2.79E2,2.137E3,1.054E3,4.25E2,7.9E1,8.1E1,5.1E1,7.5E1,1.36E2,7.5E1,2.31E2,6.75E2,1.01E2,1.8E1,7E0,1.2E1,2.2E1,6E0,3.8663E4,7.4E1,7E0,8E0,8.2E1,1.97E2,2.062E3,7.5E1,5.11E2,5.43E2,4.16E2,9E0,7.3E1,6E0,1.4E1,8E0,1E1,6.4E1,7.4E1,8E0,6.1E1,1.36E2,6.16E2,1.446E3,3.2E1,4.3E1,3E1,4.81E2,4.49E2,9.4E1,1.69E2,2.47E2,1E1,5.4E1,7E0,6.7E1,1.5E1,4.6E1,1.7E1,1.19E2,1.77E2,4.39E2,9.26E2,5.2E2,1.9E1,1.3E1,2.5E1,1.8E1,1.1E1,1.9E1,1.81E2,3E2,6E0,1.63E2,1.73E2,7.4E1,5.1E1,1.6E1,1.7E1,2.9E1,5.8E1,6.1E1,3.5E1,1.42E2,1.1E1,8E0,1.5E1,1E1,1.59E2,2.2E1,3.8E1,1.3E1,6E0,1E1,6E0,1.1E1,7E0,8E0],"tree_param":{"num_deleted":"0","num_feature":"54","num_nodes":"129","size_leaf_vector":"1"}},{"base_weights":[-9.589275E-4,-8.41257E-2,1.7119454E0,-9.850932E-2,2.775624E-1,1.3669994E0,1.9997851E0,-9.915008E-2,-3.6988642E-2,2.6846963E-1,2.217831E-1,1.0344315E0,1.5107361E0,1.9108382E0,2.7040298E0,-1.0000343E-1,-8.514478E-2,-4.1082893E-2,1.6495446E-2,2.3043479E-1,6.5733856E-1,7.545106E-2,1.1173927E0,1.1749197E-1,1.5771058E0,1.885727E0,1.8867052E-1,2.5841553E0,3.6584836E-1,-8.529333E-3,-1.1345412E-2,-4.979885E-2,-9.116003E-2,-6.1771024E-2,-2.1949386E-2,1.8723401E-1,3.3513477E-1,4.973135E-2,6.485903E-2,8.964336E-2,1.0045306E-1,1.2814188E-1,1.3692547E-1,1.4925322E-1,1.6387096E-1,2.1151803E-1,2.615687E-1,-2.888701E-3,8.1695395E-4,-1.612086E-2,-4.3568015E-2,-8.5453235E-2,-8.722967E-3,-5.802322E-3,-4.3310415E-2,3.3177704E-2,-3.0608138E-2,1.5812498E-1,2.135768E-1,3.0382353E-1,3.627651E-1,4.320973E-2,-5.6784004E-2,-6.874248E-3,-8.928921E-2,-3.291125E-2,-8.67748E-3,5.4978162E-2,-4.2585307E-4,-4.8568994E-2,-4.7912532E-3,7.940553E-2,1.6666366E-1,1.7809084E-2,1.9881915E-2,2.6106741E-2,1.7617075E-2,3.0230634E-2,3.538995E-2,2.4874104E-2,8.950493E-3,-7.159247E-2,-4.6912618E-2,-7.651976E-3,-3.515284E-3,-0E0,-3.6996894E-3,9.6931085E-3,1.3179652E-3,-2.0440742E-2,-5.331304E-3,-1.8528817E-2,8.366331E-3,2.6873625E-3,1.0454924E-1,1.6413012E-1,2.4779394E-2,3.983039E-2,-6.358275E-4,-4.0753577E-3,-6.6916663E-3,-2.6668277E-2,-5.4900847E-2,-4.2675727E-4,-0E0,-9.1463013E-4,-2.540304E-3,4.4654676E-5,-2.6457773E-3,2.0572294E-3,6.126927E-4,1.1363453E-1,4.705602E-3,4.552035E-3,1.6680522E-1,2.3685095E-3,4.8810644E-3,-1.3772021E-3,-2.6092909E-3,-3.8064697E-3,-5.4637617E-3,-5.4684887E-4,8.78614E-4,-9.46207E-4,7.0178456E-4,7.639632E-3,1.1884235E-2,1.1741285E-2,1.4469269E-2],"categories":[],"categories_nodes":[],"categories_segments":[],"categories_sizes":[],"default_left":[0,0,0,0,0,0,0,0,0,0,0,0,0,0,0,0,0,0,0,0,0,0,0,0,0,0,0,0,0,0,0,0,0,0,0,0,0,0,0,0,0,0,0,0,0,0,0,0,0,0,0,0,0,0,0,0,0,0,0,0,0,0,0,0,0,0,0,0,0,0,0,0,0,0,0,0,0,0,0,0,0,0,0,0,0,0,0,0,0,0,0,0,0,0,0,0,0,0,0,0,0,0,0,0,0,0,0,0,0,0,0,0,0,0,0,0,0,0,0,0,0,0,0,0,0,0,0,0,0],"id":8,"left_children":[1,3,5,7,9,11,13,15,17,19,-1,21,23,25,27,29,31,33,-1,35,37,-1,39,-1,41,43,-1,45,-1,-1,47,49,51,53,55,57,59,-1,-1,-1,-1,-1,-1,-1,-1,-1,-1,-1,-1,-1,61,63,-1,-1,65,67,69,71,73,75,77,79,81,-1,83,85,-1,87,-1,89,91,93,95,-1,-1,-1,-1,-1,-1,97,-1,99,101,-1,-1,103,-1,-1,-1,105,-1,107,109,-1,111,113,-1,115,-1,-1,-1,117,119,-1,-1,-1,-1,121,-1,-1,123,125,-1,-1,127,-1,-1,-1,-1,-1,-1,-1,-1,-1,-1,-1,-1,-1,-1],"loss_changes":[6.406313E3,2.2312411E2,2.0569922E2,1.6195984E0,3.431166E1,4.4706543E1,6.912988E1,4.779358E-1,3.991444E-1,2.4087616E1,0E0,3.1524658E0,4.9769287E0,6.0776367E0,2.0015808E1,1.0958862E-1,4.9258423E-1,1.6233444E-1,0E0,6.6952667E0,9.110756E-1,0E0,2.3097229E-1,0E0,1.7089844E-3,3.2941895E0,0E0,3.126831E0,0E0,0E0,8.271061E-3,2.862805E-1,1.1751175E-1,1.7983735E-2,1.0494301E-1,7.8362274E-1,3.1300354E-1,0E0,0E0,0E0,0E0,0E0,0E0,0E0,0E0,0E0,0E0,0E0,0E0,0E0,3.790521E-1,1.5733719E-2,0E0,0E0,2.6152886E-2,2.641594E-2,8.61429E-2,3.2444954E-1,1.7555237E-2,6.5631866E-3,1.876831E-2,4.324118E-2,3.6195874E-2,0E0,9.896278E-3,1.4463529E-2,0E0,3.9343588E-2,0E0,4.011801E-2,1.4781141E-2,5.429983E-2,1.08867645E-1,0E0,0E0,0E0,0E0,0E0,0E0,1.7941132E-2,0E0,1.2329459E-2,2.4583787E-2,0E0,0E0,1.5879772E-4,0E0,0E0,0E0,1.828067E-3,0E0,1.0550518E-2,3.8581877E-3,0E0,5.933672E-3,1.20508194E-1,0E0,1.3243146E-3,0E0,0E0,0E0,1.7204508E-4,6.495118E-3,0E0,0E0,0E0,0E0,1.1873315E-3,0E0,0E0,2.4496382E-3,3.3294559E-3,0E0,0E0,1.698494E-2,0E0,0E0,0E0,0E0,0E0,0E0,0E0,0E0,0E0,0E0,0E0,0E0,0E0,0E0],"parents":[2147483647,0,0,1,1,2,2,3,3,4,4,5,5,6,6,7,7,8,8,9,9,11,11,12,12,13,13,14,14,15,15,16,16,17,17,19,19,20,20,22,22,24,24,25,25,27,27,30,30,31,31,32,32,33,33,34,34,35,35,36,36,50,50,51,51,54,54,55,55,56,56,57,57,58,58,59,59,60,60,61,61,62,62,64,64,65,65,67,67,69,69,70,70,71,71,72,72,79,79,81,81,82,82,85,85,89,89,91,91,92,92,94,94,95,95,97,97,101,101,102,102,107,107,110,110,111,111,114,114],"right_children":[2,4,6,8,10,12,14,16,18,20,-1,22,24,26,28,30,32,34,-1,36,38,-1,40,-1,42,44,-1,46,-1,-1,48,50,52,54,56,58,60,-1,-1,-1,-1,-1,-1,-1,-1,-1,-1,-1,-1,-1,62,64,-1,-1,66,68,70,72,74,76,78,80,82,-1,84,86,-1,88,-1,90,92,94,96,-1,-1,-1,-1,-1,-1,98,-1,100,102,-1,-1,104,-1,-1,-1,106,-1,108,110,-1,112,114,-1,116,-1,-1,-1,118,120,-1,-1,-1,-1,122,-1,-1,124,126,-1,-1,128,-1,-1,-1,-1,-1,-1,-1,-1,-1,-1,-1,-1,-1,-1],"split_conditions":[5.653533E6,2.928071E5,3.4948628E7,4.991889E4,5.821665E6,1.5111242E7,1.7021107E8,6.931472E-1,3.735559E5,2.115723E6,2.217831E-1,8.077714E6,2.4018646E7,8.5139256E7,1.03E2,6.1422824E4,-4.7058985E-1,-1.8526868E0,1.6495446E-2,1.0823E6,4.018699E6,7.545106E-2,1.0956271E7,1.1749197E-1,2.9056664E7,4.903472E7,1.8867052E-1,2.8205347E8,3.6584836E-1,-8.529333E-3,2.0128011E5,0E0,-4.697337E-1,9.2916016E4,-4.7063828E-1,8.111892E5,1.4273639E6,4.973135E-2,6.485903E-2,8.964336E-2,1.0045306E-1,1.2814188E-1,1.3692547E-1,1.4925322E-1,1.6387096E-1,2.1151803E-1,2.615687E-1,-2.888701E-3,8.1695395E-4,-1.612086E-2,-4.7063828E-1,-4.7052515E-1,-8.722967E-3,-5.802322E-3,2.2050905E5,2.3126697E5,2E0,5.262036E4,9.325402E5,7.9998806E5,1.7517831E6,-3.2E1,-4.8E1,-6.874248E-3,1.0272193E5,-4.706329E-1,-8.67748E-3,-4.706425E-1,-4.2585307E-4,-4.7062534E-1,2.0181798E5,3.6632706E5,2.488867E0,1.7809084E-2,1.9881915E-2,2.6106741E-2,1.7617075E-2,3.0230634E-2,3.538995E-2,-4.706425E-1,8.950493E-3,-4.7062534E-1,-4.7061718E-1,-7.651976E-3,-3.515284E-3,-8.3E1,-3.6996894E-3,9.6931085E-3,1.3179652E-3,-4.706329E-1,-5.331304E-3,-4.705745E-1,1.8754585E0,2.6873625E-3,3.0994415E1,6E0,2.4779394E-2,-1.7249221E0,-6.358275E-4,-4.0753577E-3,-6.6916663E-3,4.3320654E2,1.924038E3,-4.2675727E-4,-0E0,-9.1463013E-4,-2.540304E-3,6.3474895E4,-2.6457773E-3,2.0572294E-3,2.4652195E5,6.067319E5,4.705602E-3,4.552035E-3,2.4588394E5,2.3685095E-3,4.8810644E-3,-1.3772021E-3,-2.6092909E-3,-3.8064697E-3,-5.4637617E-3,-5.4684887E-4,8.78614E-4,-9.46207E-4,7.0178456E-4,7.639632E-3,1.1884235E-2,1.1741285E-2,1.4469269E-2],"split_indices":[35,35,35,38,38,35,35,51,38,35,0,35,35,35,6,34,7,32,0,35,35,0,35,0,35,35,0,35,0,0,34,4,7,38,7,35,35,0,0,0,0,0,0,0,0,0,0,0,0,0,7,7,0,0,38,38,6,36,35,34,35,24,24,0,35,7,0,7,0,7,35,35,53,0,0,0,0,0,0,7,0,7,7,0,0,22,0,0,0,7,0,7,53,0,37,4,0,32,0,0,0,37,37,0,0,0,0,38,0,0,35,35,0,0,34,0,0,0,0,0,0,0,0,0,0,0,0,0,0],"split_type":[0,0,0,0,0,0,0,0,0,0,0,0,0,0,0,0,0,0,0,0,0,0,0,0,0,0,0,0,0,0,0,0,0,0,0,0,0,0,0,0,0,0,0,0,0,0,0,0,0,0,0,0,0,0,0,0,0,0,0,0,0,0,0,0,0,0,0,0,0,0,0,0,0,0,0,0,0,0,0,0,0,0,0,0,0,0,0,0,0,0,0,0,0,0,0,0,0,0,0,0,0,0,0,0,0,0,0,0,0,0,0,0,0,0,0,0,0,0,0,0,0,0,0,0,0,0,0,0,0],"sum_hessian":[4.497E4,4.2888E4,2.082E3,4.1248E4,1.64E3,9.48E2,1.134E3,4.0822E4,4.26E2,1.634E3,6E0,2.87E2,6.61E2,1.008E3,1.26E2,3.8473E4,2.349E3,4.19E2,7E0,1.489E3,1.45E2,1.04E2,1.83E2,2.23E2,4.38E2,9.33E2,7.5E1,1.18E2,8E0,3.8458E4,1.5E1,3.43E2,2.006E3,2E2,2.19E2,1.055E3,4.34E2,8.6E1,5.9E1,9.1E1,9.2E1,1.28E2,3.1E2,2.01E2,7.32E2,9.9E1,1.9E1,8E0,7E0,1.4E1,3.29E2,1.331E3,6.75E2,1.47E2,5.3E1,2.9E1,1.9E2,5.03E2,5.52E2,2.06E2,2.28E2,4.3E1,2.86E2,5.97E2,7.34E2,4.6E1,7E0,1.9E1,1E1,1.11E2,7.9E1,5E1,4.53E2,4.5E2,1.02E2,2E2,6E0,2E2,2.8E1,3.4E1,9E0,1.12E2,1.74E2,7.26E2,8E0,1.2E1,3.4E1,7E0,1.2E1,3.8E1,7.3E1,4E1,3.9E1,1.8E1,3.2E1,4.45E2,8E0,2.4E1,1E1,2.7E1,8.5E1,5.1E1,1.23E2,6E0,6E0,2.1E1,1.7E1,1.5E1,2.5E1,1.1E1,2.8E1,2.6E1,6E0,1.1E1,4.34E2,1.6E1,8E0,1.7E1,3.4E1,6.1E1,6.2E1,7E0,8E0,9E0,1.9E1,1.5E1,1.1E1,4.2E1,3.92E2],"tree_param":{"num_deleted":"0","num_feature":"54","num_nodes":"129","size_leaf_vector":"1"}},{"base_weights":[2.1993906E-4,-7.731552E-2,1.5504209E0,-8.967675E-2,2.4490702E-1,1.2406409E0,1.838594E0,-8.991682E-2,5.5066234E-1,1.8455458E-1,3.9823654E-1,9.166523E-1,1.3816608E0,1.7403055E0,2.3991914E0,-9.062791E-2,-2.135925E-2,1.0327369E-1,-4.1342117E-3,1.7331035E-1,2.7707326E-1,3.3993542E-1,5.8857316E-1,6.781407E-2,8.5384704E-2,1.2542026E0,1.4484508E0,1.3867545E-1,1.7828406E0,2.303797E0,3.312166E-1,-7.5803995E-2,-9.145024E-2,-3.2515354E-2,4.245157E-2,1.528912E-1,1.6648332E-2,2.5439855E-1,4.673086E-1,3.2700127E-1,6.716997E-1,4.5335114E-2,6.321324E-1,9.9353544E-2,1.09822236E-1,1.17026165E-1,1.2556672E-1,1.5060583E-1,1.7042333E-1,1.8600781E-1,2.1790148E-1,-7.703337E-2,-3.1731434E-2,-9.147334E-2,1.1966728E-3,-4.203571E-2,-1.3338528E-3,7.385453E-3,5.176607E-2,1.4425501E-1,1.3943426E-2,1.8352361E-2,2.2670114E-2,1.5448785E-2,6.159663E-2,3.1519923E-1,3.4386333E-2,7.68401E-2,3.4127977E-2,5.1514115E-2,6.6985704E-2,-7.9128794E-2,-7.08064E-2,-4.1926622E-2,-0E0,-9.150931E-2,-5.346638E-3,-5.0432548E-2,-1.1339372E-2,-2.5180435E-2,1.1724904E-2,-0E0,1.3634614E-3,3.946969E-2,6.0080167E-2,1.2513119E-2,9.840898E-3,2.4991026E-2,2.8162789E-2,-6.803852E-2,-8.094302E-2,-5.6644764E-2,-6.259776E-3,-4.8210997E-2,-2.4005033E-4,6.1064586E-4,-7.821114E-4,-9.1522746E-2,-5.0872755E-3,-5.0288895E-3,-3.97567E-2,-2.5659913E-2,1.4807562E-4,-3.334636E-3,-1.624271E-2,2.2639083E-3,6.584459E-3,1.1930896E-3,4.322013E-3,6.177947E-3,2.972054E-3,-6.524375E-3,-5.9901305E-2,-8.185194E-2,-5.806619E-2,-5.184888E-2,-8.584026E-3,-5.132783E-3,-3.647705E-2,-7.8024003E-3,-1.0657361E-2,-4.808494E-2,-2.2648733E-2,-2.8634581E-3,-6.0287054E-4,-1.1060512E-2,9.850537E-3,-1.9295954E-3,-0E0,2.6979547E-2,-7.985298E-3,-2.0385298E-3,-5.451836E-3,-7.3487256E-3,-6.8096886E-3,-5.233814E-3,-2.059461E-3,-2.9150594E-3,-4.824551E-3,-6.1532366E-3,-1.5716876E-3,-5.9527946E-3,-3.6618123E-3,-3.4262885E-3,2.479843E-3,-0E0,-1.3326927E-3,1.6248097E-3,-0E0,4.3315743E-3,2.8929837E-5,-1.315222E-3,1.711534E-4],"categories":[],"categories_nodes":[],"categories_segments":[],"categories_sizes":[],"default_left":[0,0,0,0,0,0,0,0,0,0,0,0,0,0,0,0,0,0,0,0,0,0,0,0,0,0,0,0,0,0,0,0,0,0,0,0,0,0,0,0,0,0,0,0,0,0,0,0,0,0,0,0,0,0,0,0,0,0,0,0,0,0,0,0,0,0,0,0,0,0,0,0,0,0,0,0,0,0,0,0,0,0,0,0,0,0,0,0,0,0,0,0,0,0,0,0,0,0,0,0,0,0,0,0,0,0,0,0,0,0,0,0,0,0,0,0,0,0,0,0,0,0,0,0,0,0,0,0,0,0,0,0,0,0,0,0,0,0,0,0,0,0,0,0,0,0,0,0,0,0,0,0,0],"id":9,"left_children":[1,3,5,7,9,11,13,15,17,19,21,23,25,27,29,31,33,-1,-1,35,37,39,41,-1,-1,43,45,-1,47,49,-1,51,53,55,57,59,-1,61,63,65,67,-1,69,-1,-1,-1,-1,-1,-1,-1,-1,71,73,75,-1,77,79,81,83,85,-1,-1,-1,-1,-1,87,-1,-1,-1,-1,-1,89,91,93,95,97,-1,99,101,103,105,-1,-1,107,109,-1,-1,-1,-1,111,113,115,-1,117,-1,-1,-1,119,-1,-1,121,123,125,-1,127,129,-1,-1,-1,-1,-1,-1,131,133,135,137,-1,-1,139,-1,-1,141,143,-1,-1,145,147,-1,-1,149,151,-1,-1,-1,-1,-1,-1,-1,-1,-1,-1,-1,-1,-1,-1,-1,-1,-1,-1,-1,-1,-1,-1],"loss_changes":[5.3679507E3,1.6941069E2,1.8901758E2,6.295807E0,1.4493729E1,4.6375732E1,5.9112305E1,1.9912415E0,6.1351843E0,1.140358E0,4.8164673E0,2.8738098E0,5.362915E0,3.4316406E0,1.9880188E1,4.8529053E-1,3.0003068E-1,0E0,0E0,4.281063E-1,4.5559502E-1,1.3479233E0,9.770203E-2,0E0,0E0,1.458435E-1,6.591797E-2,0E0,1.0742188E0,2.6815796E0,0E0,1.1066055E-1,9.6954346E-2,1.0499826E-1,1.7973661E-2,2.8467178E-2,0E0,1.14398E-2,8.218682E-1,2.2520065E-1,5.968628E-1,0E0,2.7917862E-2,0E0,0E0,0E0,0E0,0E0,0E0,0E0,0E0,1.945877E-2,1.8193148E-2,3.186035E-2,0E0,6.815961E-2,2.7188636E-2,1.0945746E-3,3.3858418E-4,5.525112E-3,0E0,0E0,0E0,0E0,0E0,3.8995743E-2,0E0,0E0,0E0,0E0,0E0,2.3540497E-2,1.3242722E-2,8.90404E-3,1.0780764E-3,8.758545E-3,0E0,1.4999211E-2,1.0901298E-2,1.5735421E-3,3.0580323E-2,0E0,0E0,3.676653E-3,3.2711327E-3,0E0,0E0,0E0,0E0,8.587837E-3,2.0565987E-2,1.0642797E-2,0E0,8.1864744E-4,0E0,0E0,0E0,2.8686523E-3,0E0,0E0,1.0942206E-2,2.542043E-3,3.5075473E-3,0E0,2.226456E-3,1.3042976E-2,0E0,0E0,0E0,0E0,0E0,0E0,1.319477E-2,2.2630692E-3,2.2358596E-3,2.5154203E-3,0E0,0E0,9.832818E-3,0E0,0E0,1.8629134E-3,3.1972893E-2,0E0,0E0,1.611528E-4,2.2412124E-3,0E0,0E0,7.7766823E-3,3.0014354E-3,0E0,0E0,0E0,0E0,0E0,0E0,0E0,0E0,0E0,0E0,0E0,0E0,0E0,0E0,0E0,0E0,0E0,0E0,0E0,0E0,0E0,0E0],"parents":[2147483647,0,0,1,1,2,2,3,3,4,4,5,5,6,6,7,7,8,8,9,9,10,10,11,11,12,12,13,13,14,14,15,15,16,16,19,19,20,20,21,21,22,22,25,25,26,26,28,28,29,29,31,31,32,32,33,33,34,34,35,35,37,37,38,38,39,39,40,40,42,42,51,51,52,52,53,53,55,55,56,56,57,57,58,58,59,59,65,65,71,71,72,72,73,73,74,74,75,75,77,77,78,78,79,79,80,80,83,83,84,84,89,89,90,90,91,91,93,93,97,97,100,100,101,101,102,102,104,104,105,105,112,112,113,113,114,114,115,115,118,118,121,121,122,122,125,125,126,126,129,129,130,130],"right_children":[2,4,6,8,10,12,14,16,18,20,22,24,26,28,30,32,34,-1,-1,36,38,40,42,-1,-1,44,46,-1,48,50,-1,52,54,56,58,60,-1,62,64,66,68,-1,70,-1,-1,-1,-1,-1,-1,-1,-1,72,74,76,-1,78,80,82,84,86,-1,-1,-1,-1,-1,88,-1,-1,-1,-1,-1,90,92,94,96,98,-1,100,102,104,106,-1,-1,108,110,-1,-1,-1,-1,112,114,116,-1,118,-1,-1,-1,120,-1,-1,122,124,126,-1,128,130,-1,-1,-1,-1,-1,-1,132,134,136,138,-1,-1,140,-1,-1,142,144,-1,-1,146,148,-1,-1,150,152,-1,-1,-1,-1,-1,-1,-1,-1,-1,-1,-1,-1,-1,-1,-1,-1,-1,-1,-1,-1,-1,-1],"split_conditions":[5.005446E6,6.067319E5,3.4948628E7,3.735559E5,1.2943249E6,1.4026028E7,1.1690454E8,5.590701E4,-1.18E2,1.01323006E6,2.8927538E6,8.077714E6,2.4018646E7,5.4408588E7,2.42E2,-1.0816326E0,2.4652195E5,1.0327369E-1,-4.1342117E-3,8.3623194E5,2.6315808E-2,2.9849008E2,3.397524E6,6.781407E-2,8.5384704E-2,1.7900546E7,2.9056664E7,1.3867545E-1,8.5139256E7,1.7357469E8,3.312166E-1,-6E1,1.729679E5,1.1565304E5,2.928071E5,7.384479E5,1.6648332E-2,1.335979E2,3.320148E5,1.7517831E6,-1.393252E0,4.5335114E-2,1.9184616E2,9.9353544E-2,1.09822236E-1,1.17026165E-1,1.2556672E-1,1.5060583E-1,1.7042333E-1,1.8600781E-1,2.1790148E-1,2.7467012E4,1.729679E5,4.6E1,1.1966728E-3,2E0,5.2E1,0E0,3.6632706E5,1.9E1,1.3943426E-2,1.8352361E-2,2.2670114E-2,1.5448785E-2,6.159663E-2,1.499604E6,3.4386333E-2,7.68401E-2,3.4127977E-2,5.1514115E-2,6.6985704E-2,4.2915344E1,-1.2236842E0,4.3320654E2,4.736154E2,1.1544299E4,-5.346638E-3,5E1,1.999455E4,2.0194054E2,-1.323077E0,-0E0,1.3634614E-3,1.4212694E2,6.1035156E1,1.2513119E-2,9.840898E-3,2.4991026E-2,2.8162789E-2,3.9126524E-1,4.9431086E4,4.55E1,-6.259776E-3,-1.4754099E0,-2.4005033E-4,6.1064586E-4,-7.821114E-4,8.2E1,-5.0872755E-3,-5.0288895E-3,-1.4316069E0,1.7881393E1,1.729679E5,-3.334636E-3,2.0317697E5,8.106232E0,6.584459E-3,1.1930896E-3,4.322013E-3,6.177947E-3,2.972054E-3,-6.524375E-3,4.3859595E-1,2.5105476E2,1.4147402E5,9.3E1,-8.584026E-3,-5.132783E-3,1.17E2,-7.8024003E-3,-1.0657361E-2,-1.2862687E0,-1.3643275E0,-2.8634581E-3,-6.0287054E-4,5.69859E2,3.9126524E-1,-1.9295954E-3,-0E0,2.643506E-1,1.48E2,-2.0385298E-3,-5.451836E-3,-7.3487256E-3,-6.8096886E-3,-5.233814E-3,-2.059461E-3,-2.9150594E-3,-4.824551E-3,-6.1532366E-3,-1.5716876E-3,-5.9527946E-3,-3.6618123E-3,-3.4262885E-3,2.479843E-3,-0E0,-1.3326927E-3,1.6248097E-3,-0E0,4.3315743E-3,2.8929837E-5,-1.315222E-3,1.711534E-4],"split_indices":[35,35,35,38,35,35,35,38,22,35,35,35,35,35,4,42,35,0,0,35,44,26,35,0,0,35,35,0,35,35,0,23,35,37,35,35,0,26,38,35,42,0,31,0,0,0,0,0,0,0,0,38,35,27,0,6,27,8,35,40,0,0,0,0,0,35,0,0,0,0,0,37,42,37,29,36,0,27,36,33,42,0,0,26,33,0,0,0,0,0,36,31,0,42,0,0,0,23,0,0,42,37,35,0,37,33,0,0,0,0,0,0,0,38,35,29,0,0,29,0,0,32,32,0,0,26,0,0,0,0,28,0,0,0,0,0,0,0,0,0,0,0,0,0,0,0,0,0,0,0,0,0,0],"split_type":[0,0,0,0,0,0,0,0,0,0,0,0,0,0,0,0,0,0,0,0,0,0,0,0,0,0,0,0,0,0,0,0,0,0,0,0,0,0,0,0,0,0,0,0,0,0,0,0,0,0,0,0,0,0,0,0,0,0,0,0,0,0,0,0,0,0,0,0,0,0,0,0,0,0,0,0,0,0,0,0,0,0,0,0,0,0,0,0,0,0,0,0,0,0,0,0,0,0,0,0,0,0,0,0,0,0,0,0,0,0,0,0,0,0,0,0,0,0,0,0,0,0,0,0,0,0,0,0,0,0,0,0,0,0,0,0,0,0,0,0,0,0,0,0,0,0,0,0,0,0,0,0,0],"sum_hessian":[4.4659E4,4.2532E4,2.127E3,4.0961E4,1.571E3,1.026E3,1.101E3,4.0946E4,1.5E1,1.128E3,4.43E2,3.12E2,7.14E2,9.38E2,1.63E2,4.0525E4,4.21E2,7E0,8E0,1.007E3,1.21E2,3.4E2,1.03E2,1.3E2,1.82E2,2.48E2,4.66E2,2.59E2,6.79E2,1.54E2,9E0,2.134E3,3.8391E4,3.59E2,6.2E1,5.24E2,4.83E2,1.09E2,1.2E1,3.28E2,1.2E1,4.7E1,5.6E1,7.2E1,1.76E2,1.18E2,3.48E2,6.34E2,4.5E1,1.06E2,4.8E1,2.075E3,5.9E1,3.8383E4,8E0,2.74E2,8.5E1,1.4E1,4.8E1,2.94E2,2.3E2,2.7E1,8.2E1,6E0,6E0,2.86E2,4.2E1,6E0,6E0,4.9E1,7E0,1.545E3,5.3E2,4.4E1,1.5E1,3.8333E4,5E1,2.14E2,6E1,3.1E1,5.4E1,7E0,7E0,2.2E1,2.6E1,2.68E2,2.6E1,1.2E2,1.66E2,2.22E2,1.323E3,8.6E1,4.44E2,3.7E1,7E0,7E0,8E0,3.8315E4,1.8E1,1.16E2,9.8E1,2.8E1,3.2E1,1E1,2.1E1,4.8E1,6E0,8E0,1.4E1,1.6E1,1E1,1.05E2,1.17E2,1.27E3,5.3E1,7.9E1,7E0,1.6E1,2.1E1,3.8304E4,1.1E1,6.4E1,3.4E1,1.8E1,1E1,1.3E1,1.9E1,1.5E1,6E0,1.5E1,3.3E1,1.3E1,1.04E2,3.88E2,8.82E2,4.7E1,6E0,1.9E1,6E1,6E0,1.5E1,1E1,5.4E1,2.6E1,8E0,6E0,7E0,1.1E1,8E0,7E0,8E0,2.1E1,1.2E1],"tree_param":{"num_deleted":"0","num_feature":"54","num_nodes":"153","size_leaf_vector":"1"}},{"base_weights":[4.0981217E-4,-7.0732154E-2,1.411122E0,-8.20383E-2,2.246525E-1,1.1292096E0,1.656774E0,-8.228227E-2,6.2211618E-2,1.9586886E-1,5.088962E-1,8.455957E-1,1.25973E0,1.5803787E0,2.111179E0,-8.287263E-2,-1.3235449E-2,1.6026735E-1,2.890759E-1,4.8817223E-1,6.461333E-2,6.046348E-2,9.0801036E-1,1.1647557E0,1.1363655E-1,1.24435656E-1,1.3784316E-1,2.0197146E0,2.425693E-1,-8.3669946E-2,-7.019774E-2,-2.9374586E-2,3.6361143E-2,1.4145719E-1,1.8075843E-1,2.7731282E-1,7.600295E-2,4.2069557E-1,5.48822E-1,7.391818E-2,8.3223976E-2,9.445376E-2,1.03826985E-1,1.5962438E-1,1.7826957E-1,-8.369033E-2,-0E0,-7.1239285E-2,-2.288733E-2,-3.911495E-2,-1.6146567E-2,2.0307142E-2,6.5468654E-2,1.3259047E-1,1.2933935E-2,1.48603795E-2,1.6190175E-2,2.1385878E-2,2.5272928E-2,3.0445984E-2,3.8309354E-2,4.3459546E-2,5.18739E-2,-7.1365493E-3,-3.4033917E-3,-1.1255397E-2,-7.08939E-2,-2.620265E-3,-2.1491563E-3,-4.405469E-3,-2.807025E-2,-2.8556598E-2,-7.70333E-3,4.4683046E-3,3.1675965E-2,7.484212E-2,3.290472E-3,1.1507742E-2,8.752634E-3,-7.31686E-2,-6.3827716E-2,-1.3233735E-3,5.7398947E-4,-1.8863337E-2,-3.5495793E-3,-3.4230107E-3,-2.1501737E-2,-3.789914E-3,-2.7342436E-3,1.1988114E-2,-4.0604075E-4,3.3779946E-4,3.3663593E-3,7.2104265E-3,3.6509612E-3,-6.168285E-2,-7.5459436E-2,-6.563084E-2,-3.7241653E-3,-2.9443147E-2,3.4724204E-3,-2.7905455E-2,-0E0,6.7832973E-3,-1.8806584E-2,1.6071534E-3,-0E0,-4.969746E-3,-6.4733815E-3,-6.812673E-3,-6.112653E-3,-5.7233525E-3,-4.900299E-3,-3.3042452E-3,-9.701733E-5,-2.7726404E-3,-7.247083E-4,4.9432763E-3,-2.6041325E-4,-1.8959353E-3,-2.7545498E-4],"categories":[],"categories_nodes":[],"categories_segments":[],"categories_sizes":[],"default_left":[0,0,0,0,0,0,0,0,0,0,0,0,0,0,0,0,0,0,0,0,0,0,0,0,0,0,0,0,0,0,0,0,0,0,0,0,0,0,0,0,0,0,0,0,0,0,0,0,0,0,0,0,0,0,0,0,0,0,0,0,0,0,0,0,0,0,0,0,0,0,0,0,0,0,0,0,0,0,0,0,0,0,0,0,0,0,0,0,0,0,0,0,0,0,0,0,0,0,0,0,0,0,0,0,0,0,0,0,0,0,0,0,0,0,0,0,0,0,0,0,0],"id":10,"left_children":[1,3,5,7,9,11,13,15,-1,17,19,21,23,25,27,29,31,33,35,37,-1,-1,39,41,-1,-1,-1,43,-1,45,47,49,51,53,55,57,-1,59,61,-1,-1,-1,-1,-1,-1,63,-1,65,67,69,71,73,75,77,-1,-1,-1,-1,-1,-1,-1,-1,-1,-1,-1,-1,79,-1,81,-1,83,85,87,89,91,93,-1,-1,-1,95,97,-1,-1,99,-1,-1,101,103,-1,105,-1,-1,-1,-1,-1,107,109,111,-1,113,-1,115,-1,117,119,-1,-1,-1,-1,-1,-1,-1,-1,-1,-1,-1,-1,-1,-1,-1,-1],"loss_changes":[4.4993955E3,1.4253537E2,1.4831494E2,8.13562E0,1.2811714E1,3.669995E1,3.8628418E1,1.6710815E0,0E0,4.710148E0,5.7177734E-1,2.4227448E0,4.1417236E0,3.4121094E0,8.898865E0,4.0390015E-1,2.7972165E-1,3.7810326E-1,2.6656837E0,4.3458557E-1,0E0,0E0,2.4787903E-1,3.63739E-1,0E0,0E0,0E0,6.976318E-2,0E0,6.7718506E-2,1.1492252E-1,3.1735405E-2,3.6153384E-2,3.1576157E-2,4.0187836E-3,1.499157E-1,0E0,3.3833504E-2,1.3872147E-2,0E0,0E0,0E0,0E0,0E0,0E0,1.2969971E-2,0E0,3.8689613E-2,7.3997006E-3,1.7311573E-2,1.0521775E-2,8.717086E-3,2.0827055E-3,7.2689056E-3,0E0,0E0,0E0,0E0,0E0,0E0,0E0,0E0,0E0,0E0,0E0,0E0,3.0982018E-2,0E0,2.3112958E-3,0E0,7.7052712E-3,9.797812E-4,5.2968655E-3,2.0539858E-3,5.0687417E-3,2.450347E-4,0E0,0E0,0E0,3.9821625E-2,1.5904188E-2,0E0,0E0,3.2341633E-2,0E0,0E0,3.3691032E-3,1.0399958E-2,0E0,9.699769E-4,0E0,0E0,0E0,0E0,0E0,7.849455E-3,1.6934395E-2,3.964901E-4,0E0,1.0147557E-2,0E0,3.4050457E-4,0E0,1.9954154E-2,4.6403985E-4,0E0,0E0,0E0,0E0,0E0,0E0,0E0,0E0,0E0,0E0,0E0,0E0,0E0,0E0,0E0,0E0],"parents":[2147483647,0,0,1,1,2,2,3,3,4,4,5,5,6,6,7,7,9,9,10,10,11,11,12,12,13,13,14,14,15,15,16,16,17,17,18,18,19,19,22,22,23,23,27,27,29,29,30,30,31,31,32,32,33,33,34,34,35,35,37,37,38,38,45,45,47,47,48,48,49,49,50,50,51,51,52,52,53,53,66,66,68,68,70,70,71,71,72,72,73,73,74,74,75,75,79,79,80,80,83,83,86,86,87,87,89,89,95,95,96,96,97,97,99,99,101,101,103,103,104,104],"right_children":[2,4,6,8,10,12,14,16,-1,18,20,22,24,26,28,30,32,34,36,38,-1,-1,40,42,-1,-1,-1,44,-1,46,48,50,52,54,56,58,-1,60,62,-1,-1,-1,-1,-1,-1,64,-1,66,68,70,72,74,76,78,-1,-1,-1,-1,-1,-1,-1,-1,-1,-1,-1,-1,80,-1,82,-1,84,86,88,90,92,94,-1,-1,-1,96,98,-1,-1,100,-1,-1,102,104,-1,106,-1,-1,-1,-1,-1,108,110,112,-1,114,-1,116,-1,118,120,-1,-1,-1,-1,-1,-1,-1,-1,-1,-1,-1,-1,-1,-1,-1,-1],"split_conditions":[5.005446E6,6.067319E5,3.2994296E7,3.735559E5,1.7517831E6,1.4026028E7,1.1565488E8,5.9638977E4,6.2211618E-2,1.0823E6,3.3333302E-1,7.129889E6,2.6027324E7,4.903472E7,2.8205347E8,4.776923E1,2.0181798E5,8.480091E5,1E1,3.035074E6,6.461333E-2,6.046348E-2,1.0956271E7,2.020355E7,1.1363655E-1,1.24435656E-1,1.3784316E-1,1.7021107E8,2.425693E-1,1.729679E5,1.0272193E5,9.2916016E4,3.6632706E5,7.4297025E5,9.031391E5,1.3539681E6,7.600295E-2,1.6869167E5,4.018699E6,7.391818E-2,8.3223976E-2,9.445376E-2,1.03826985E-1,1.5962438E-1,1.7826957E-1,5.225897E3,-0E0,0E0,2.0181798E5,8.5E1,-6.285713E0,7.916617E4,2.5987625E1,4E0,1.2933935E-2,1.48603795E-2,1.6190175E-2,2.1385878E-2,2.5272928E-2,3.0445984E-2,3.8309354E-2,4.3459546E-2,5.18739E-2,-7.1365493E-3,-3.4033917E-3,-1.1255397E-2,2.7467012E4,-2.620265E-3,-8.8E1,-4.405469E-3,-7.5E1,-1.9E1,3.69E2,-9.368421E-1,1.357E3,2.072991E0,3.290472E-3,1.1507742E-2,8.752634E-3,5.00679E0,1.14E2,-1.3233735E-3,5.7398947E-4,-7.7E1,-3.5495793E-3,-3.4230107E-3,1.3837098E5,-7.3E1,-2.7342436E-3,3.3333302E-1,-4.0604075E-4,3.3779946E-4,3.3663593E-3,7.2104265E-3,3.6509612E-3,1.71E2,1.8000603E2,-1.5E1,-3.7241653E-3,6.05E2,3.4724204E-3,1.0459423E3,-0E0,5.960464E0,-6.6E1,1.6071534E-3,-0E0,-4.969746E-3,-6.4733815E-3,-6.812673E-3,-6.112653E-3,-5.7233525E-3,-4.900299E-3,-3.3042452E-3,-9.701733E-5,-2.7726404E-3,-7.247083E-4,4.9432763E-3,-2.6041325E-4,-1.8959353E-3,-2.7545498E-4],"split_indices":[35,35,35,38,35,35,35,38,0,35,8,35,35,35,35,29,35,35,18,35,0,0,35,35,0,0,0,35,0,35,35,38,35,35,35,35,0,36,35,0,0,0,0,0,0,37,0,4,35,29,31,38,37,18,0,0,0,0,0,0,0,0,0,0,0,0,38,0,22,0,22,31,28,45,28,43,0,0,0,35,29,0,0,22,0,0,37,22,0,8,0,0,0,0,0,28,35,31,0,23,0,35,0,35,22,0,0,0,0,0,0,0,0,0,0,0,0,0,0,0,0],"split_type":[0,0,0,0,0,0,0,0,0,0,0,0,0,0,0,0,0,0,0,0,0,0,0,0,0,0,0,0,0,0,0,0,0,0,0,0,0,0,0,0,0,0,0,0,0,0,0,0,0,0,0,0,0,0,0,0,0,0,0,0,0,0,0,0,0,0,0,0,0,0,0,0,0,0,0,0,0,0,0,0,0,0,0,0,0,0,0,0,0,0,0,0,0,0,0,0,0,0,0,0,0,0,0,0,0,0,0,0,0,0,0,0,0,0,0,0,0,0,0,0,0],"sum_hessian":[4.4831E4,4.2679E4,2.152E3,4.1106E4,1.573E3,1.003E3,1.149E3,4.1094E4,1.2E1,1.429E3,1.44E2,3.17E2,6.86E2,9.85E2,1.64E2,4.0745E4,3.49E2,1.035E3,3.94E2,1.34E2,1E1,1.01E2,2.16E2,3.01E2,3.85E2,2.31E2,7.54E2,1.47E2,1.7E1,3.8329E4,2.416E3,2.64E2,8.5E1,5.42E2,4.93E2,3.87E2,7E0,6.5E1,6.9E1,1.38E2,7.8E1,1.49E2,1.52E2,5.1E1,9.6E1,3.832E4,9E0,2.363E3,5.3E1,1.5E2,1.14E2,5.6E1,2.9E1,2.95E2,2.47E2,2.95E2,1.98E2,1.65E2,2.22E2,2.2E1,4.3E1,4.4E1,2.5E1,3.8309E4,1.1E1,1.2E1,2.351E3,3.7E1,1.6E1,6.8E1,8.2E1,4.4E1,7E1,2.5E1,3.1E1,2E1,9E0,2.71E2,2.4E1,1.772E3,5.79E2,8E0,8E0,5.1E1,3.1E1,1.4E1,3E1,6.2E1,8E0,1.6E1,9E0,8E0,2.3E1,1.4E1,6E0,2.99E2,1.473E3,5.29E2,5E1,4.4E1,7E0,2.2E1,8E0,3.5E1,2.7E1,9E0,7E0,2.45E2,5.4E1,6.68E2,8.05E2,4.41E2,8.8E1,3.2E1,1.2E1,1.6E1,6E0,6E0,2.9E1,2E1,7E0],"tree_param":{"num_deleted":"0","num_feature":"54","num_nodes":"121","size_leaf_vector":"1"}},{"base_weights":[-5.0665595E-4,-6.365102E-2,1.3254826E0,-7.5065695E-2,2.2111344E-1,1.0785644E0,1.5529565E0,-7.532407E-2,5.7855916E-1,1.8396485E-1,5.196368E-1,8.4263724E-1,1.1875658E0,1.5174817E0,2.8328645E0,-7.556555E-2,1.8285561E-2,1.4756235E-2,9.060459E-2,1.7831358E-1,6.829253E-1,4.322203E-1,4.9435858E-2,7.6086646E-1,8.0209956E-2,9.315927E-2,1.05035365E-1,1.4568614E0,1.8148602E0,2.0270613E-1,2.93412E-1,-6.0460247E-2,-7.647927E-2,-2.951798E-3,2.6441673E-2,1.4427617E-1,2.5721666E-1,9.257737E-3,1.1741308E-1,3.7600793E-2,2.6059574E-2,5.581661E-2,6.7899294E-2,1.1922329E-1,1.267112E-1,1.4467548E-1,1.6216193E-1,-6.271265E-2,-1.53207425E-2,-7.650637E-2,-0E0,-2.1705985E-2,1.2012013E-2,1.2447129E-1,1.6231783E-1,2.3418692E-1,2.8486323E-1,-6.486351E-2,-5.1801663E-2,-2.2211863E-2,1.4682307E-2,-7.6541185E-2,-3.9544232E-2,-1.2603826E-3,1.4374795E-3,-2.7974706E-2,5.834325E-4,1.7487392E-2,-1.2213727E-3,5.6067258E-2,1.2741645E-1,1.2762567E-2,1.41480025E-2,2.2956216E-1,3.3089474E-2,2.3447517E-2,2.7951466E-2,-6.543391E-2,-2.2616543E-2,-5.355028E-2,-2.8465E-2,-3.0857217E-2,-1.0649455E-2,-1.2031108E-2,6.8507455E-3,-7.657219E-2,-4.2587906E-2,-3.9427546E-3,-2.5990086E-2,-3.4360534E-3,-1.7832719E-2,2.5888608E-4,2.3057744E-2,2.3721394E-3,5.920551E-3,9.941488E-3,1.1381582E-2,1.5893402E-2,2.0278532E-2,-8.970044E-3,-6.506766E-2,-2.6280626E-3,-1.3561775E-2,-4.76594E-3,-4.49308E-2,-1.5740307E-2,-3.1046695E-3,-3.5429501E-3,-1.7819602E-2,-1.6120806E-2,1.21404424E-4,1.2585811E-3,-4.4896677E-3,-6.527958E-3,-9.265021E-3,-1.3868759E-3,-4.4270004E-3,-4.150252E-4,-3.3206048E-3,-1.8319684E-3,-7.360102E-5,-1.8573768E-4,7.7499606E-4,1.5126915E-2,3.5505497E-3,-4.735269E-3,-5.654634E-3,-1.8660526E-3,-0E0,-1.4847188E-3,-4.0776595E-3,-2.3958555E-3,-0E0,-1.9039594E-3,-4.4546847E-5,-3.305339E-4,-1.7735688E-3,-0E0,1.8062637E-3],"categories":[],"categories_nodes":[],"categories_segments":[],"categories_sizes":[],"default_left":[0,0,0,0,0,0,0,0,0,0,0,0,0,0,0,0,0,0,0,0,0,0,0,0,0,0,0,0,0,0,0,0,0,0,0,0,0,0,0,0,0,0,0,0,0,0,0,0,0,0,0,0,0,0,0,0,0,0,0,0,0,0,0,0,0,0,0,0,0,0,0,0,0,0,0,0,0,0,0,0,0,0,0,0,0,0,0,0,0,0,0,0,0,0,0,0,0,0,0,0,0,0,0,0,0,0,0,0,0,0,0,0,0,0,0,0,0,0,0,0,0,0,0,0,0,0,0,0,0,0,0,0,0,0,0,0,0,0,0],"id":11,"left_children":[1,3,5,7,9,11,13,15,17,19,21,23,25,27,29,31,33,-1,-1,35,37,39,-1,41,-1,-1,-1,43,45,-1,-1,47,49,51,-1,53,55,-1,-1,-1,-1,-1,-1,-1,-1,-1,-1,57,59,61,63,65,67,69,71,73,75,77,79,81,83,85,87,-1,-1,89,-1,91,-1,93,95,-1,-1,97,-1,-1,-1,99,101,103,105,107,109,111,-1,113,115,-1,117,-1,119,121,123,-1,-1,-1,-1,-1,-1,-1,125,-1,127,-1,129,131,-1,-1,133,135,-1,-1,-1,-1,-1,-1,-1,-1,-1,-1,-1,-1,-1,137,-1,-1,-1,-1,-1,-1,-1,-1,-1,-1,-1,-1,-1,-1,-1],"loss_changes":[3.7766775E3,1.3995442E2,1.1449487E2,6.9868317E0,1.834237E1,2.489746E1,4.6794678E1,9.380493E-1,3.0978022E0,4.088814E0,8.4093094E-1,2.1984558E0,2.286499E0,1.7698486E1,4.860092E0,5.628662E-1,6.7110795E-1,0E0,0E0,3.8940773E0,6.4066734E0,1.0732651E-2,0E0,4.1783905E-1,0E0,0E0,0E0,6.678467E-1,5.614624E-1,0E0,0E0,2.3647308E-1,7.940674E-2,2.8336145E-2,0E0,3.471489E-1,2.3732185E-1,0E0,0E0,0E0,0E0,0E0,0E0,0E0,0E0,0E0,0E0,4.7101974E-2,2.3831142E-2,4.4570923E-2,3.6238772E-3,8.985529E-3,8.041434E-3,8.9158535E-2,3.8700104E-3,1.1874771E-1,3.0042648E-2,4.1233063E-2,1.1628509E-2,7.634431E-3,3.8613204E-2,3.5247803E-2,3.1649694E-4,0E0,0E0,2.3298785E-3,0E0,3.554917E-3,0E0,3.6926493E-3,1.595068E-2,0E0,0E0,5.3203583E-2,0E0,0E0,0E0,1.8062592E-2,1.21304765E-4,2.308011E-3,6.8112835E-4,4.6422333E-3,3.3656145E-3,1.7317109E-2,0E0,7.6293945E-4,6.2850565E-3,0E0,2.4607638E-3,0E0,5.875258E-4,5.576307E-4,2.5334712E-3,0E0,0E0,0E0,0E0,0E0,0E0,0E0,1.5958786E-2,0E0,1.1731067E-3,0E0,3.5463423E-3,1.7002653E-3,0E0,0E0,1.1007795E-3,8.2661863E-4,0E0,0E0,0E0,0E0,0E0,0E0,0E0,0E0,0E0,0E0,0E0,0E0,0E0,2.43229E-3,0E0,0E0,0E0,0E0,0E0,0E0,0E0,0E0,0E0,0E0,0E0,0E0,0E0,0E0,0E0],"parents":[2147483647,0,0,1,1,2,2,3,3,4,4,5,5,6,6,7,7,8,8,9,9,10,10,11,11,12,12,13,13,14,14,15,15,16,16,19,19,20,20,21,21,23,23,27,27,28,28,31,31,32,32,33,33,35,35,36,36,47,47,48,48,49,49,50,50,51,51,52,52,53,53,54,54,55,55,56,56,57,57,58,58,59,59,60,60,61,61,62,62,65,65,67,67,69,69,70,70,73,73,77,77,78,78,79,79,80,80,81,81,82,82,83,83,85,85,86,86,88,88,90,90,91,91,92,92,100,100,102,102,104,104,105,105,108,108,109,109,123,123],"right_children":[2,4,6,8,10,12,14,16,18,20,22,24,26,28,30,32,34,-1,-1,36,38,40,-1,42,-1,-1,-1,44,46,-1,-1,48,50,52,-1,54,56,-1,-1,-1,-1,-1,-1,-1,-1,-1,-1,58,60,62,64,66,68,70,72,74,76,78,80,82,84,86,88,-1,-1,90,-1,92,-1,94,96,-1,-1,98,-1,-1,-1,100,102,104,106,108,110,112,-1,114,116,-1,118,-1,120,122,124,-1,-1,-1,-1,-1,-1,-1,126,-1,128,-1,130,132,-1,-1,134,136,-1,-1,-1,-1,-1,-1,-1,-1,-1,-1,-1,-1,-1,138,-1,-1,-1,-1,-1,-1,-1,-1,-1,-1,-1,-1,-1,-1,-1],"split_conditions":[6.012474E6,3.6632706E5,4.0011916E7,3.3921694E5,2.115723E6,1.7900546E7,2.8205347E8,1.252763E0,7E0,3.3333302E-1,3.397524E6,1.0956271E7,2.6027324E7,8.5139256E7,3.64E2,-1.1332408E0,-1E0,1.4756235E-2,9.060459E-2,1.01323006E6,1.001358E1,0E0,4.9435858E-2,7.129889E6,8.0209956E-2,9.315927E-2,1.05035365E-1,5.99449E7,1.7021107E8,2.0270613E-1,2.93412E-1,7.916617E4,7.672811E4,2.0181798E5,2.6441673E-2,8.111892E5,1.499604E6,9.257737E-3,1.1741308E-1,3.7600793E-2,2.6059574E-2,5.581661E-2,6.7899294E-2,1.1922329E-1,1.267112E-1,1.4467548E-1,1.6216193E-1,3.8158895E4,2.0317697E5,1.3767958E4,2.4652195E5,3.1701088E4,2.3978953E0,6.067319E5,8.668451E5,6.25E-2,1.7517831E6,7.672811E4,-6.9E1,-7.6E1,-1.2104721E0,4E0,-7.4E1,-1.2603826E-3,1.4374795E-3,1.4147402E5,5.834325E-4,1.999455E4,-1.2213727E-3,3E0,1.18746836E5,1.2762567E-2,1.41480025E-2,1.2355091E6,3.3089474E-2,2.3447517E-2,2.7951466E-2,-1.18E2,9.5378164E4,-1.7558588E0,2.345853E-1,1.1565304E5,4.0515152E1,8.809525E0,6.8507455E-3,7.2E1,1.8575582E-1,-3.9427546E-3,-7E1,-3.4360534E-3,1.4461377E1,2.9E1,1.9459102E0,2.3721394E-3,5.920551E-3,9.941488E-3,1.1381582E-2,1.5893402E-2,2.0278532E-2,-8.970044E-3,4.3153763E1,-2.6280626E-3,5.9E1,-4.76594E-3,4.158497E4,8.821487E0,-3.1046695E-3,-3.5429501E-3,5.0328225E-1,-7.1E1,1.21404424E-4,1.2585811E-3,-4.4896677E-3,-6.527958E-3,-9.265021E-3,-1.3868759E-3,-4.4270004E-3,-4.150252E-4,-3.3206048E-3,-1.8319684E-3,-7.360102E-5,-1.8573768E-4,7.7499606E-4,2.453815E4,3.5505497E-3,-4.735269E-3,